13
225
225
225
225
112
112
112
50
50
50
10
10
10
-0.320419100945
0.811713943749
-0.827649180836
-0.725764067948
-0.191422492024
-0.493732162731
-0.118868339407
0.450522762452
0.465267938945
-0.174258067227
-0.515087689169
0.288288676611
-0.597794421665
-0.312793204235
-0.176358275665
0.324998293722
-0.481742577664
-0.364038182634
-0.299377345021
-0.351454667758
0.989987136732
0.667333626985
-0.112165847548
0.925966663992
0.578106661862
0.540361798298
-0.965917123055
-0.229430642649
0.721540221184
-0.905037596255
0.582047374373
0.79392457958
0.935937834844
-0.274264592894
-0.960541274161
-0.187096524892
0.145795440568
-0.884435785936
-0.560786131316
-0.911353640885
0.180792843871
0.80751246443
0.101201078748
-0.76406236512
-0.0286160323053
-0.610572457739
-0.195329865594
-0.559327854715
-0.811498098621
-0.950722051311
-0.780149312235
0.941884572645
-0.681121208124
0.423803193007
-0.293783973144
-0.615109475912
-0.630711962508
-0.588808302482
-0.0928814080828
0.2826418911
0.32056628286
-0.00744053486418
0.416844467317
-0.449967454661
-0.679916799591
0.971282723406
0.535573496084
-0.858164315466
0.83613144748
-0.140061651557
0.497365183525
-0.628336265422
-0.924965552255
-0.801314624049
0.964003517359
-0.971883929849
0.704531683834
0.501770095775
-0.713245573249
-0.265564779528
-0.345202838529
-0.452070579059
0.0542240330104
0.626471018732
-0.457335234111
0.259117112801
0.907067160416
-0.409562369104
-0.473764976998
0.654493006184
-0.788880230657
-0.503102344774
0.315192088504
-0.899089030593
-0.0274548670591
0.185246414928
0.0906403767962
-0.453144437759
-0.113078992273
-0.0419967514811
0.296300720487
-0.137580130297
0.477938252016
-0.230031693815
0.590674714525
-0.477872683564
0.290972061154
0.736887962563
-0.326803147493
-0.773571926057
-0.743938908951
0.816815304403
-0.121699998311
-0.70567814778
-0.640901772963
-0.0128517877368
0.675491675388
-0.719775758432
0.417029681572
-0.558589980543
-0.946878412235
-0.636471980157
0.862566723128
1.00838727273
0.547912971563
-0.820101993737
1.01411466135
0.88334159236
0.856251148972
-0.718400164242
0.557630150948
-0.800356448099
-0.735244119992
-0.98908519379
0.636738110528
-0.235384584427
-0.977838125786
-0.202403989278
-0.606274339065
-0.901209560955
0.988099134557
0.639342660034
-0.743304016843
-0.318175245583
-0.250586672602
0.085810056989
-0.751345646143
0.566023905716
-0.301431447248
-0.52881802924
0.0917099478741
-0.216687045952
0.242903824171
0.707562751965
0.529150079059
-0.33748526907
-0.835548250449
0.350558509431
-0.802592269921
-0.929518705586
0.761615343346
0.626435089881
-0.303931343847
0.62444782311
-0.385417061815
-0.0469070722472
-0.2174681735
0.891189159809
-0.193001152207
0.959880658915
0.891137405517
-0.534371704822
0.915285744163
0.693121743763
0.421725864655
-0.990285100407
-0.89119224834
0.0361952559047
-0.117077491323
-0.517826747498
0.552591787625
0.617802326145
0.861155951009
-0.251155824781
0.515630176041
-0.707069872631
-0.0353042214077
-0.611673315901
0.777997228339
-0.759473184773
-0.418174724842
0.224287674962
0.238116349685
-0.401772863974
-0.866639985943
0.224044030028
0.787112943684
0.167318267417
-0.296166221144
-0.943597842649
0.439134694677
-0.769011191101
0.622070797788
0.784190588231
-0.0497433811522
0.778155272943
0.509032115315
0.628356122647
-0.129593710664
0.321692047787
-0.325631745596
-0.569071404844
0.163446304825
-0.172931764065
0.0467134571555
-0.569103206829
-0.581666291056
-0.76093723592
-0.0672951160306
-0.192182864409
-0.287541990224
-0.134170495846
-0.563926687392
-0.660081552539
0.28225479664
-0.689071231099
0.372297485677
-0.792004335286
-0.515718688979
0.217168643832
0.615246433555
0.110148969626
0.339893326366
0.791964677327
-0.358687273568
-0.050926583045
-0.795291808707
-0.375925818262
0.0735846336877
0.729200116328
0.147242711977
-0.189498720487
0.561431692007
-0.438749352122
-0.707914146953
0.463711800505
0.544077820159
-0.676428295886
0.832398000529
-0.357387691524
-0.191373466828
-0.21388064556
-0.238918479895
-0.157033455016
-0.491822599673
-0.465792596626
0.477615972906
-0.371785350941
0.228598878376
0.0709465886512
0.453643829138
-0.710938191888
-0.45754124332
-0.227953932094
0.13004905958
0.0855886507657
0.911745272892
-0.249663319536
-0.848236627983
-0.266068396521
0.470501244925
-0.23944175686
-0.66099690008
-0.187093895839
0.866969489157
0.162911349093
0.150474555646
-0.535779854428
-0.596471861868
0.203522850113
0.0653262061208
-0.76120700928
0.685534729216
0.440496518495
-0.381514379166
-0.259676175663
-0.0107421400208
0.836266170456
-0.827752658589
-0.242750911496
-0.560857035538
0.655001711915
-0.66629498552
-0.179662546612
0.837704816006
-0.624077621547
0.387181905264
0.639006249201
-0.71033770231
0.353940775805
-0.0588016740808
-0.669658807892
-0.669763944969
-0.775282293203
-0.908240186699
0.178620028267
-0.549274164239
-0.927618286749
0.117921210824
-0.136552124447
-0.221260044312
-0.315431584878
-0.944492939778
-0.288173997832
0.518035509945
-0.977984847659
-0.209688537013
-0.43572343852
-0.066360389997
0.11398612945
-1.0006429227
0.681221751844
-0.267769665572
-0.649519228238
0.406918340017
0.682878931055
0.99181496184
-0.414951348111
-0.215641886155
-0.1578957879
0.174412570181
-0.187009595628
-0.151687311479
0.476309759431
-0.132481801996
-0.414474065738
-0.804971968284
0.777490188611
0.874897848236
0.212928624511
-0.330533196912
-0.991751868694
-0.784801405284
-0.635578995989
0.400977374877
0.0997788145933
-0.646068523145
-0.357010829476
0.848518686021
0.0540295075155
-0.483816496637
0.542842553953
0.145140409937
-0.199395412308
0.373939441862
-0.314300207751
0.448994377735
0.678558232606
-0.499629239868
0.0576791097647
-0.625679902408
0.200245967301
0.617816224663
0.238950971616
-0.208800319508
-0.501228406244
-0.504527122742
-0.91965311811
0.227634464664
-0.0802739017151
0.512468831143
0.159311559651
1.05253541658
-0.0045274817034
-0.310099360589
-0.58261516895
-0.683386096765
-0.432556740304
0.00184424443518
-0.435824305642
0.80192965027
-0.310553949786
-0.737329500235
0.504364153978
0.531578551136
-0.786292582323
-0.1326358284
0.466177854361
0.563375248884
-0.557079122089
0.727058836232
0.950947280255
-0.118891743238
-0.339474346948
-0.736049599237
-0.542026960206
-0.649824470211
0.505785645291
-0.416006726342
-0.884644566582
-0.0395574872865
0.455529595463
-0.346836815315
0.102540557826
0.332339055949
0.332799528119
0.483022778889
0.916458360251
0.877337481996
-0.197124771182
0.995160552347
0.455139130415
-0.935899067242
-0.375555441705
0.105409668465
0.552830284737
-0.809480298382
-0.766138335202
-0.268551399486
-0.274013693482
-0.720988524489
0.827911449944
0.723512448362
-0.833401773258
-0.332156651129
-0.53921111184
-0.93024706504
-0.132935888833
-0.473800147504
-0.247350118217
-0.61813958554
0.287446966098
-0.440650861335
0.0650146695579
0.527619668072
0.388639727629
0.1267944904
-0.313497855277
1.09812382224
-0.951097279848
-0.94327720577
0.259364185846
-0.0352814177447
-0.328351423862
-0.635094423975
-0.760810850376
0.497599384648
-0.802979880564
0.24756448189
-0.883232072592
0.121958262697
0.695193530203
-0.165912840077
-0.198889737655
0.396372323848
0.172892156986
-0.418881872054
0.858846300891
0.204146062249
-0.790806096217
0.758733778051
-0.339956331141
-0.379092035218
-0.608456057093
-0.501446778447
-0.917117129436
0.856510144041
-0.295140155
0.369720340674
1.03424679877
-0.607662453905
0.116089599658
0.941926958712
0.552162253668
0.811196016293
-0.876114201679
-0.0498926264525
0.561176840042
0.26630947007
0.839813440948
0.448237200465
0.108385949512
0.999227364263
-0.196741750997
-0.309817313923
-0.260093716428
0.125165639293
0.504913488905
0.913349910039
0.879547262843
0.0224891153483
-0.961271592719
-0.247279909263
-0.8763814457
-0.524262577243
0.752325777589
0.430235512232
0.939357330127
0.691052795394
0.925214171342
0.0606734642924
-0.523726298842
-0.0553679055796
-0.45238543131
-0.756437762416
-0.545592210476
0.69736050684
-0.536988527335
0.692262633975
0.433863317834
0.0543923577313
-0.0537502892831
0.502816360666
0.0569974209631
-0.446602243633
-0.225948191568
0.599211580885
-0.807577360281
0.816498126947
-0.143655133889
-0.382498790253
-0.564474836748
-0.990297703801
0.679668995053
-0.401951075058
-0.421624112785
0.852890242149
-0.740779006928
-0.355609338012
-0.382894774895
-0.699781166776
-0.28142208445
0.198004398677
-0.197356311501
-0.926608149098
-0.454579557253
-0.570283294791
-0.648362822989
0.819240949986
0.689267924937
0.476263174978
0.263735613689
-0.16041885028
-0.90200116393
0.780391946255
-1.03592457883
-0.417793697705
0.880717576315
-0.858551874466
-0.148432994228
-0.967562718226
-0.666383115691
-0.0249717747081
0.112616791565
0.360128211473
-0.973426398711
-0.331175410375
0.0468774282198
0.161905229411
1.02815722521
0.312442713632
0.174181173913
-0.62214460861
-0.654564229596
-0.278550536185
-0.458727357037
0.0414077233314
-0.530726053372
0.342826645984
-0.934305505532
-0.112445934604
0.296330929138
0.272032950314
-0.685133173666
-1.00509725834
-0.252718940761
-0.652976126097
-0.279468038715
-0.657286353853
-0.874684622958
0.150039439632
0.206579469023
0.530177383829
0.286635772045
0.40690862708
0.997266319711
0.423898375412
-0.938704639025
-0.43080448359
0.606143583631
-0.322298124545
1.06669975726
0.291125974134
0.410486232732
-0.592492873782
0.0845170765683
-0.341452187077
-0.69187307571
-0.657574290299
-0.870231216851
0.306748246792
-0.125134031759
0.0932330443896
0.763793586496
0.194911574746
0.470378755513
-0.417473675306
0.249173728924
-0.110878765963
0.316561375496
0.961689783605
-0.623071437607
0.892374815402
-0.538519553792
-0.110906253397
-0.6156227464
0.807250348598
-0.220324482162
-0.559336253093
1.00241352081
-0.0498812627129
-0.446267628754
-0.401465912722
-0.849445481607
0.215945129436
0.107277381339
-0.743591010474
0.309472878112
0.742162103241
0.447818409043
-0.0490297847129
0.0822653337924
-0.634159181712
0.895753816777
0.0263700077624
0.43814544766
-0.811794661132
0.85929138752
-0.733567005614
-0.264372367617
0.0537415204257
1.04588573207
0.639996661559
-0.765601701451
-0.483868499371
0.355953219797
-0.37182952226
0.784854219807
-0.135319591726
0.655264115432
-0.585289878194
-0.847543547127
-0.196894731262
-0.536183102625
0.0841293318775
0.0852773224085
0.190721988556
-0.168331308755
0.288280966857
-0.242052282582
0.856275783233
-0.963215341053
-0.925758729634
0.359680100974
0.400474216557
-0.997689020747
0.992202898014
0.296689401065
-0.845950577598
-0.631495771564
0.657169457377
0.213939165272
-0.0066882298896
-0.325191803647
0.568665808007
-0.739806491626
0.76433619623
0.0618256610566
-0.0783258904722
0.401949269159
-0.876961377755
0.857762346169
0.853107207232
-0.862002684809
0.366157961414
0.38244119052
-0.507112199991
0.190664897626
1.01382019827
-1.03843816168
0.545589540034
-0.55450566148
-0.0688845455359
0.154032520238
-0.985219626688
0.8788695904
-0.00755880473896
-0.662489303344
-0.615609847715
0.0229706206329
0.391462086523
0.518233045227
0.348136359065
-0.518905463277
-0.957641293225
-0.210323516317
0.826052865936
0.893694658394
-0.596254822506
-0.940822937272
-0.117217241172
-0.925630703457
0.440014335032
-0.426743614496
0.913911194735
0.554846899464
0.419808635303
-0.318734345985
-0.648171160872
0.707991968767
-1.01573541801
-0.886527081028
-0.908648475554
-0.729370392508
0.261610662827
0.544632149871
0.877351981002
-0.747707216726
0.581811261221
-0.317356659799
1.03926782003
-0.102398729217
-0.0857684001262
0.368128942532
-0.503614078203
-0.429720501773
-0.408768848346
0.59437029096
0.681209692881
-0.240927436903
0.452316993174
-0.295599047754
0.737822314733
0.726418510598
-0.456621070212
-0.747685227927
-0.0684295271271
-0.265832329472
0.365314693396
0.578034274575
0.370402937836
0.575931985223
-0.475774892197
0.754669587954
-0.258056643131
-0.656103472705
-0.908131926392
-0.840569449323
-0.308208802146
-0.941827978699
-0.0747776957429
-0.700486065395
0.394263180247
-0.741101015748
-0.300549690494
-0.182836904055
-0.675673453499
0.662134474384
-0.574372176119
0.885152559997
0.431920074757
-0.256979667229
-0.294625013099
-0.382052100279
0.842655807257
-0.906953170188
-0.472476057075
0.807977048866
-0.336820404976
0.421296573612
-0.0158502591321
0.574848740631
-0.459198513037
-0.74689666052
-0.182256384989
-0.841282699207
-0.0126174295029
-0.336917760945
0.480551825814
0.679364365284
0.789781612479
-0.311399572999
0.666918905691
0.0698470505348
-0.91366101158
-0.676869061743
0.839794714933
0.844393464744
-0.850021400645
-0.477212286964
-1.01524251946
0.145792092806
-0.770302160455
-0.734716481347
0.726743601071
-0.360537102361
0.716387662485
-0.786950050434
-0.702451749171
-0.0858689624357
0.83846293223
0.0251718848092
0.400550342432
1.05540883123
-0.884987112441
-0.23371569205
-0.323622223278
0.890777735922
-0.437307747932
0.385724704481
0.164951528063
0.243684818603
0.411604282957
-0.6186967177
0.808440564068
0.776842704741
0.977205319913
0.658078316339
0.185962987741
-0.634359267561
-0.385326810575
0.837472141222
0.601086120944
0.396036883274
-0.702644054186
-0.12399722205
0.577463936916
0.844631684557
0.563352208567
0.964802660725
0.167748717133
-0.446319183283
-0.377130345109
0.349489551477
0.384306547004
0.129288536029
0.0260613839519
-0.745658241566
-0.558932696011
0.228297145554
-0.206976123335
-0.429557537517
-0.884757090296
0.944745395953
-0.234734026501
0.814353662445
-0.518831066434
-0.766094640515
-0.995907194962
0.12055249008
1.00904632154
0.295494892796
0.465810890524
0.927011487786
0.699466810515
0.0318619686923
0.00543810566216
0.574610968917
-0.477133639829
-0.287240867061
0.610436322198
1.04828073363
-0.550228963567
-0.583075912205
-0.0932975441618
-0.368358856769
-0.516620596908
0.852082359313
-0.931805215788
-0.478035416245
0.0245656570776
0.435560780806
-0.446320997356
-0.490300666566
-1.05471119618
0.0865315067211
0.673705537187
-0.599008312048
-0.38272147031
0.617979528238
0.736879209995
0.515828707724
0.475290692282
-0.787808184342
-0.868839845639
-0.446899622829
-0.551779003662
0.650616567038
1.00252964969
-0.433641220197
-0.528887555809
0.894399923734
0.0268269192514
0.0336934346002
-0.873915063072
-0.385422440067
-0.874336931355
0.142079532246
-0.732407527733
0.177574028805
0.29681480261
-0.636360238387
-0.477738868847
0.475556745491
0.792334300904
0.672164837665
-0.341564200311
-0.704769480938
-0.68365335342
-0.459182612967
-0.172350302435
0.709665313522
0.609089794562
0.707876865233
-0.799668766096
-0.0545079245511
-0.121187923772
-0.558069358088
-0.506063408304
0.683693832302
0.0337704065593
0.913300920282
-0.393976878404
0.741005090264
0.810321122009
1.11304448732
0.744477301028
-0.460973591623
-0.550452413881
0.426961991929
-0.553698494987
0.48720864733
-0.757424448009
1.00700322968
-0.505143561071
0.337671449946
0.934083868944
-0.170592324176
-0.0397081509938
-0.108823596104
0.443245924812
0.985372245851
-0.128896119865
-0.542511965246
1.00341126114
-0.216372818993
-0.473999213509
0.0509294042316
0.98630474055
-0.278345097587
0.318787762978
0.572719219856
-0.288386631014
-0.159550920748
0.649418676679
0.511792791147
-0.271162816795
0.879859889313
-0.589610460968
-0.588901234462
-1.05832819257
-0.831094627964
0.622385898455
0.53268136141
0.605568936786
-0.290563036698
-0.316533613789
-0.540659193131
0.32658521235
-0.776100939064
-0.874727345402
-0.681426419285
0.996876379756
0.558835552806
0.0086502542281
-0.990911808908
0.14194731227
-0.554173695501
-0.64869075168
0.997734757825
1.05857053894
0.394624618943
-0.627505797079
0.964020746358
-0.552331937645
-0.0862046100535
0.631473183082
0.495950467509
-0.932203509655
-0.419221184589
0.887093017078
0.330610097473
-0.949898054437
0.403503037904
-0.902903269926
-0.0149677649384
-0.236847848923
-0.163011837653
0.252116746701
0.0839469793323
0.242781681129
0.857846730442
0.417552272866
0.134073112327
-0.47875368288
0.16760565176
0.673433600539
-0.0955614672003
0.526055701571
-0.228140917526
-0.705593309997
-0.89478410812
0.214935877758
0.0406807969516
0.751337587839
0.416667803722
0.519526655096
1.08130573207
-0.430160597939
0.62707063476
-0.197324601031
0.431087835087
0.201099978781
-0.469632647935
0.0568621222074
-0.032152080954
0.264604060575
0.209224771416
0.854926058748
-0.593746123471
0.601544579772
-0.678885060088
0.575397498496
0.346001516712
0.326994817057
0.474283592825
0.19125206611
-5.46658872797e-05
-0.809270627958
-0.170445865279
-0.0661279892624
0.203616736386
0.245410446558
-0.921964917795
-0.074573563045
-0.204133091093
1.02970391405
0.690768414728
0.169619446166
-0.773313787576
0.138474484061
-0.643127058016
0.140390719721
0.0798011391114
-0.100182208629
-0.188113394594
0.569241970348
0.268463431903
0.149156600686
0.278759200292
-0.251587733203
-0.628466830248
-0.640852654712
0.459649846883
-1.13540392504
-0.77004978196
0.955656105739
0.0928395123913
-0.407218399517
0.419845347418
-0.230768827198
-0.870499830055
-0.485147666876
1.04677898732
-0.962375938868
-0.712267029427
0.305198126066
0.7341642181
0.577074582954
0.521393025871
0.996466287748
-0.757232012904
-0.219046116291
-0.359284256163
-0.869401835048
-0.525855986566
-0.289559227456
-0.58062633228
-0.738647556361
-0.367707203994
-0.77413487227
0.0453914117193
0.884603243274
0.705028591626
-0.250945987881
0.389110832066
0.823113076444
1.16598994742
-0.191732204258
1.08722772451
0.670905657596
0.436839700435
0.481230588063
0.768709723027
-0.402315527992
0.564869982443
-0.527596898928
-0.965609719312
0.926573378789
0.0767932116608
-0.235691743419
-0.0608043525893
-0.145162036214
0.121116857948
0.713811222909
-0.0935546877177
0.318710642073
-0.475737393019
-0.0897661594933
0.494816042956
0.459608729471
0.901287342057
0.647875807545
-0.62041551323
0.78293162652
0.621254197081
-0.577975812797
-0.307567346946
-0.165689327385
0.833599724922
-0.448080098752
-0.172084759902
0.675464827896
0.262118921582
0.0250903251547
-0.958864313022
1.04582820038
-0.57703097536
0.0481214779162
-0.551204682281
-0.111930296121
-0.518108889182
-0.650837493477
-0.71884077508
-0.0184093266074
0.27661459569
-0.509413573357
0.810104686197
-0.533940468421
0.598789425717
-0.216333017596
0.0493182183738
0.19192515085
0.415227979182
0.935046504582
-0.808704914232
0.0480717329014
0.670624429586
0.538286729639
-0.276704131396
-0.87073856636
0.06663894555
0.160624921642
-0.740574357834
-0.654933307095
-0.422044215864
-0.305910999451
0.953817796647
-0.264779227162
-0.565372065921
1.20558063877
0.575404867496
0.0349848940365
1.02286754774
-1.00400638684
-0.817733179932
-0.656495809084
-0.999354373822
0.443402120724
0.618450706153
0.564829865725
0.612812128256
-0.13738321908
0.82542903097
0.495252784226
0.407828144708
0.193187236343
-0.80556123236
-0.973293894754
0.0820139795989
0.85092226511
-1.05518130162
0.182853536518
0.348653736023
0.825531337635
0.121754737082
0.0779906289639
-0.601586214435
-0.957880292964
0.365175779614
0.400666834841
-0.129700946728
0.848935856658
0.489112052997
0.281310884492
-0.302295427962
1.02304462813
-0.491034296364
0.335479654517
-0.582967225616
-0.563752283397
-0.00461985214702
-0.76157525557
0.29727915538
0.0995566879961
0.553815936502
0.619250605426
0.878908452698
-0.0056813552899
-1.15253139566
-0.851669173439
-0.146971977561
-1.20960884677
-0.525046750682
-0.53159582756
-0.00899513574765
0.186032655458
0.926845513178
-0.634841476752
0.867374867345
-1.00939284741
0.42867839332
0.26294788077
-0.532138062438
0.852627327403
0.263023219623
0.282601946847
0.724754723642
-0.356973283317
0.600949057015
0.773446274492
-0.252929216435
0.181751840382
0.379706449845
0.396745379988
0.265404215378
-0.336810286576
-0.698632277999
0.821983330404
0.428529003414
0.193330645528
0.119162995596
0.34265409739
0.0690651445727
0.184513238572
0.000770958214073
0.907749262863
-0.183344805258
0.680963675605
-1.10675825902
-0.209143342202
-0.610127815496
-0.986148210367
0.346121261075
-0.623369475581
-0.0583573250512
-0.090716911016
0.474416390542
0.720193648912
-0.180965000328
0.148855024881
-0.68849532076
-0.885979791405
-0.66767164678
0.200980279262
0.840143252011
0.318868811912
0.176892839494
0.708627373922
0.115073627199
-0.562804639805
0.134135702317
0.369001859389
0.918845121372
0.514737605471
-0.242145910707
0.899557783447
-0.27101308241
-0.701056341954
0.361526341424
-0.273432926152
0.20194553493
-0.877117701969
-0.851531346826
-0.556137773933
0.736079413205
-0.788864215
-0.371169689338
-0.572283883875
0.374732884137
-0.669559467169
-1.03929141914
0.104949217722
-0.401269289245
0.314125936289
0.471671326763
-0.794958727839
-0.303303944721
-0.00861270005861
0.393004784722
0.570099081127
-0.929970522812
0.145331230261
1.01499216118
0.57699125618
0.80027681595
0.603574633113
-0.0244961941353
0.932593992705
-0.371730840975
-0.111851838255
-0.672397699253
0.228124151998
0.125043592021
0.898204626149
-0.881981469453
-0.735516656249
0.317630345766
0.331029180491
-1.02427737357
0.715473731904
0.301009617721
0.306163497971
0.382142377238
0.312008623167
-0.573886510048
-0.693051717352
0.601324276486
1.00743362077
-0.614199652556
0.43092046248
-0.0873081937816
-0.369551270912
-0.613876922214
0.908978492654
-0.181663142208
0.438588484987
0.199578832653
0.137120820731
0.801160595159
0.171502191484
0.820751279675
-0.793466428485
-0.185212325766
0.663952459923
-0.0283830054804
0.356183936975
-0.787977924546
0.505261708856
-0.967504674466
-0.242595740311
0.638631953609
0.00410801810588
0.655841470724
-0.928821997236
-0.854848138398
-0.484744720353
-0.190467049159
-0.539020596363
-0.554452242736
0.445141847997
0.470814628215
0.667472475228
-0.215815111462
-0.247239262031
-0.17684990301
0.864936653867
-0.107282693203
0.0605843421382
-0.3224357883
1.0065514344
-0.159637871821
0.508882418778
-0.247656145797
0.855887364032
-0.0196829009146
0.114197784184
-0.976466007591
0.261712505625
0.0734354739626
0.0560191003064
-0.887426132657
0.560199201836
-0.9190806831
0.176792808373
0.964424506494
0.551641392337
-0.00978033630206
0.661071066798
0.51343020759
0.401410118849
-0.105898092938
0.57252683358
-0.79119201215
-0.674557154081
-0.391263203514
0.220248345615
-0.989787280678
-0.957842131327
1.01729188068
-0.440434163891
-0.420824358939
-0.537641000767
0.481605630944
-0.467309539105
0.494703022316
0.173335342966
-0.353394971359
0.35409807258
-0.154079325788
-0.857303154952
0.836491996794
0.628481404171
-0.469328122251
-0.998209643721
-0.689106776129
-0.557171404295
0.59663830309
0.520797750953
-0.711511572448
0.458761694622
1.08401775274
0.939616031245
-0.512343907355
0.739417930974
0.128391817819
0.579480057513
-0.433826808976
-1.24250026183
0.0338306752485
0.878688752087
-0.895892087452
-0.812137000691
-0.481276819298
0.54651072204
0.157072405612
0.203732122189
-0.570010568545
0.234801958128
-0.659412915786
0.136258601407
-0.84901270616
-1.06690778793
-0.366698865902
0.5208649059
-0.528129261039
0.850684315218
-0.667495459541
-0.594796263158
-0.315034230296
0.640694647567
-0.851777047667
-0.365752818226
0.318652356459
0.767778353944
0.414766767026
-0.0118038594459
0.106168346001
-0.517110869478
0.359217749525
1.14874411198
0.987789422652
-0.53171626074
0.133840041844
0.758506621409
0.215949421611
0.586741028128
0.83819142737
0.571505584717
0.277485736789
-0.331404686467
-1.00726425458
0.591601173523
-0.712118505755
-0.30776240059
0.143205381729
0.47009969522
-1.06863062384
0.330854397039
-0.651939155995
0.192851318625
-0.661146439177
-0.783938241175
-0.640177013352
0.394264209477
-0.0677109216799
-0.0179505040237
-0.595800936696
0.384684259199
-0.09947310584
0.844707391198
-0.222235873689
0.158245263048
-0.381433730588
0.315787522815
0.406086631963
0.286860114793
-0.98973825429
0.376247373631
-0.267961479242
-0.505653804492
0.476987763297
0.935732502619
-0.367707082417
-0.874114613596
0.549902774195
0.819683923439
0.511688080798
-0.323844668272
-1.10514562166
0.947002791484
0.851106322937
0.0863345926045
0.050449983782
-0.552666090971
-0.822400542599
0.360008827739
-0.952267300483
-0.0985567308174
-0.274243224663
1.04042221422
-0.126114750123
-0.950164462818
-0.387252014169
0.90667181246
0.76849481485
0.647297031743
-0.515791628133
-0.499872885397
0.835106939759
0.554796916579
0.0371923439189
-0.646932860567
-0.975427686781
-0.826343041617
0.584772850888
0.306228639733
0.814554286302
0.625445544846
0.263620361049
0.565583803565
-0.197097842076
0.675390728994
-0.975224063754
-0.0338696018296
-0.189796060352
-0.380930075484
0.548847371259
0.903301765801
-0.0841489755973
0.859817031697
0.643813071592
0.508630037725
0.0968129612404
0.102977323546
0.467859999491
0.399999359213
-1.07939069458
-0.701594179502
0.128743371065
-0.224828148545
0.557154996705
0.245053469834
0.779280127963
-1.12367677595
0.511701816286
-0.26207140763
-0.920854339475
0.181740807741
-0.79039466993
0.871446616877
0.173486819624
0.462838108713
-0.363034521331
-0.871276911812
-0.634207191212
-0.784719712802
-0.389158512294
0.68916295526
-0.707396664905
-0.949055530257
0.145564644775
-0.815842485176
-0.434530149383
0.0328924061765
-0.0437046940124
-0.558897668948
-0.771531274961
-0.336720023508
0.611762866294
-0.237602096535
-0.484950938815
0.969821579933
-0.166062622347
-0.446513008016
-0.327620902476
0.929128748472
0.422276890904
0.611877833414
0.689098440849
-0.265160087868
0.742402129237
-0.792620660938
0.844762919106
0.236440048292
-0.399057867685
-0.627094660251
-0.838998138809
-0.497626068021
-0.0436653794434
0.136462940969
-0.412091886981
-0.126582627431
0.309139471089
-0.329713081617
-0.317870627268
0.786740341714
-1.02329003871
-0.420396747015
0.682678880939
0.271325067844
0.798113266131
0.407063588261
0.424062893347
-0.0514008777907
-0.729740442908
0.287398777962
0.427897071868
0.77076613091
0.787905511634
-0.572190336289
0.796498901131
0.318991352118
0.886787353181
0.875284010231
0.446416382438
-0.65259265481
-0.382614860185
-0.683515148817
-0.504239193726
-0.290889152673
-0.417079394235
-0.395238519922
-0.425979333976
0.131895008531
-0.0352630754052
0.575841020779
-0.388584544548
-0.433939007197
0.290498286875
-0.745934603787
0.75191041068
-0.745620477432
-0.0644523178762
-0.71606239096
-0.338820615858
0.916473547675
-0.50888366388
0.904763289491
0.304411508509
0.750423936052
-0.813660522742
-0.547273656866
0.111512083966
-0.514685006129
0.561988701457
0.39674418595
-0.0968215542521
0.800833367641
0.312484988925
0.330404548092
0.229600918593
0.486141048992
-0.411655189401
-0.666775419337
0.461091623793
0.388947327027
0.856297013059
0.372005673498
-0.0765399662073
-0.628192475579
-0.181970000974
0.384690277093
-0.110729323743
-0.368070986635
-0.105984382994
-0.131340841302
0.552029692473
0.513071410684
0.290469950128
-0.311695075294
-0.354293617287
-0.620555675685
0.541737472439
-0.739773761552
1.00182271335
0.516787838141
0.934425112463
-0.12323750699
-0.649774973697
-0.464649213341
-0.855191932805
-0.469824134077
0.929206559961
0.181543073187
0.528780408832
-0.207969967342
-0.714099260304
0.732034737329
-0.653672215829
-0.226852569181
0.643704103296
0.198971290773
-0.791531751798
-0.0140474504896
-0.365913394847
-0.875321881192
-0.624907007367
0.348729206888
-0.811195334802
0.168620328309
0.601840590449
-0.509486676937
-0.660055827747
0.591090034868
-0.0409324436827
-0.789399852783
-0.524133437727
0.642384144519
0.432723203642
-0.246093329347
-0.402900136585
-0.846618235313
0.176757520654
-0.295769957876
-0.0387282555553
0.280479684227
0.849698202513
-0.570640721079
0.0175803458628
0.961790794307
0.142685917506
-0.325169152671
-0.893746338784
0.387029376708
0.427892304107
-0.516989636285
0.54104136335
-0.528514156852
0.733630492067
-0.162595850236
0.391635349851
-1.12129338799
-0.427284102066
-0.854090353524
-0.793549772802
0.45440235
-0.701369344395
-0.682644720315
0.861429574908
-0.400645390758
-0.708866875777
-0.236869711437
-0.918906191112
-0.606788779227
0.183054814378
-0.150892586797
-0.0763931074311
0.299663459099
0.120792683088
0.491513438875
-0.62751180585
0.746428804709
0.114329765531
0.886771528097
0.948350736909
0.467065911803
-0.3161507087
-0.686734962192
-0.606449981546
-0.613230321094
0.496676980832
-0.114264965763
-0.603220751788
-0.52321259023
-0.230252636348
0.488856474317
0.153675830086
0.202804544914
0.110052275526
-0.828479387622
-0.565625502849
0.189643844196
-0.618945162011
0.618204027651
-0.0227149526553
0.558454003956
-0.266730105077
0.479734438863
-0.338028371629
0.698030262171
0.775512639954
-0.722458767331
0.0753872677671
-0.190438913101
0.077234261769
-0.799060441446
0.866475992378
-0.915704254976
-0.263388949597
-1.13061046842
-0.550239052956
-0.981919358411
0.458982053276
0.492653933235
-0.255221638893
-0.544770845358
0.869381222196
-0.916545588371
0.269241177249
-0.0721231252785
0.760010532675
-0.402250164151
0.492873235988
-0.407486929863
0.0448842336832
-0.45552122426
-0.871135477382
0.172668168377
-0.392082632425
0.0126208800735
-0.682111773584
0.11619601436
0.46205757182
0.118133748279
0.777826231616
0.287299101179
-0.137190245135
-0.379588222436
0.756575240839
0.698384058349
-0.597978646964
-1.01945019822
-0.878454861954
-0.830444114124
-0.552828643461
-0.0884428675515
0.19605179357
-0.109428914761
0.07810734482
-0.646159567383
-0.219995097628
0.56376060417
0.689434453557
0.220434617067
0.329226888883
0.234626469746
0.194165409974
0.514249018267
-0.215161482005
0.919113762871
1.11097495176
-0.809628807521
-0.234546556963
0.182858802367
-0.519716444035
-0.790498071517
0.577111489985
0.240512474223
1.07236824147
0.570462668329
-0.061325208496
0.335016995294
-1.00651472908
-0.453504711091
-0.483934707223
0.919745834315
-0.198595314391
-0.709851260425
0.335084359342
-0.949180555464
-0.817310106622
-0.423705952642
-0.718586176108
-0.52021106428
-0.882478504275
-1.00469340464
-0.555918629997
0.318796313016
-0.38203477396
0.489673143212
0.882618065429
-0.473315198986
-0.136887120607
0.625510531936
-0.639066080805
-0.0478481021844
-0.0270281375737
0.638738603171
-0.856042603242
-0.187180704652
0.870489299339
-0.884730506786
-0.469353145435
-0.556475311281
-0.704465875285
0.42604357752
0.0338324613182
-0.49379256867
0.215164953227
-0.465227590313
-0.362975526261
0.882337462151
0.436967136484
0.349388430173
0.171953006418
-0.300259102433
-0.874299319495
0.174447405861
0.0982242324115
0.215721408018
-0.207275937169
-0.358424498623
-0.157213963374
0.311243374694
-0.0904507269145
0.0491736291622
-0.954358178618
-0.936551810293
0.421395615341
0.783309478555
-0.116673487574
0.905639537068
-1.05844839728
-0.504856217559
0.719453891457
-0.493829226865
-0.412966746707
-0.871367347058
0.0280881102641
0.688771999949
-0.0237268785191
-0.953823842376
-0.124774225784
-0.416869577314
-0.345050501603
-0.137941315042
0.674245774509
-0.451719734109
0.306729683903
0.254157474507
1.07825084306
0.123778876773
0.064500389819
-0.960455822239
0.560832249665
0.120957003608
0.800956899537
-0.82442763418
0.0955840878184
0.49552588559
0.670474553737
0.900004699118
-0.207995321155
0.126052085478
0.181930348497
0.860916970718
0.317295828128
-0.0945291024703
-0.226143063294
0.324067037038
-0.183658954773
-0.348647493874
-0.260531767911
-0.21098736844
-0.990112790825
-0.895759604473
-0.873150968759
0.639438587028
-1.04103833232
-0.644765156114
-0.815403407602
-0.0340769743409
-0.425566949219
0.542027557062
0.189152696544
0.906422203103
0.674925319408
0.617773879086
-0.026883101617
-0.852563602459
-0.555174032827
-0.821980946618
0.456058365736
-0.379390767848
-0.0769075112658
0.173347976644
-0.186223954515
-0.627452030096
0.704544831572
-0.994001107658
0.926470172726
-0.779547515092
0.18628377487
0.642814290993
0.65762870188
-0.702981906662
-0.673173146397
-0.212717406951
0.86171608215
-0.552521960146
-0.798382129776
-1.09200368196
-0.762616916705
0.92334435373
-0.429567484186
-0.168175862758
0.131097639517
0.106106325453
0.537396574876
1.13331805062
-0.443256691589
-0.355855596185
0.524780141331
-0.990923214167
-0.417867295651
0.823516899515
-0.913852517965
-0.130854660022
-0.358382735173
-0.452346647018
-0.112657126994
1.00269155662
-0.816560476308
-0.122668712545
0.481696870989
0.646792731882
0.864210204402
0.606649578594
-0.65052743485
0.685717210083
-0.453848713618
-0.0797841979493
-0.337224868284
-0.812454606278
0.100155642961
-1.02790666898
-0.998391206775
0.141485487538
-0.105136530365
-0.393061312194
-0.461110042029
0.439149916444
-0.977665284994
0.537934500463
0.41603656104
0.335683594038
0.461220211762
0.693683419937
0.351304763896
-0.581338353948
0.898788825644
1.07183673798
0.296029666628
-0.373276420502
0.501181744018
0.390096278278
-0.788390835013
0.221561580068
0.432532741132
-0.430266383559
0.722794062461
-0.564172212626
0.907178763259
-0.799478956324
0.771176721413
0.389115928162
-0.0998121671407
0.611771553463
0.514197877123
-0.764095878065
0.86095641845
-0.553904002094
0.105664326702
-0.57385032823
-0.00742553974987
-0.224824914753
-0.58593814721
-0.723800247149
0.556760509631
0.603313223308
0.618050271793
-0.0145209814697
-0.301063391699
0.807220483607
-0.937095999207
-0.0768934767081
-0.949558577309
0.901782983632
-0.715439002263
0.274211566838
0.323718507855
-0.729080722998
0.0348400470106
-0.819266174985
-0.52023432772
-0.600641094061
0.322911696931
-0.192482009463
0.382020370389
-0.230119604668
0.0439843701945
0.0460515302024
-0.0136328207148
-0.186650033734
-0.420257456465
-0.0570869731813
-0.892242914146
0.667084856597
0.482736548122
-0.199371491238
0.25247879582
0.7713771577
-0.00705152317879
0.673096022796
-0.0400547581053
-0.159415215731
0.433001711871
-0.0764981846834
-0.606933077571
-0.972255319041
-0.68434803452
-0.589901195923
-0.935077794836
-0.133937264747
-0.634861611675
0.318191260782
0.747246780318
0.186005965027
-0.546456961882
0.976166392178
0.119516119528
0.703007910133
-0.22158360044
0.678172388913
-0.306671792474
0.617181355814
-0.188350100084
0.369145148175
0.226629422872
-0.987698064023
0.565324977493
-0.173330779478
0.552017605535
-0.237179649676
0.969157588005
-0.318723090332
0.427767035597
0.680420070352
-0.252361898394
-0.827726708711
0.871851200818
0.680390951056
0.111515991375
0.557402940427
-0.762249692613
-0.688534940038
0.461840620253
-0.141282208914
0.630739333113
-0.286734987923
0.0185551195052
-0.274979221591
0.77940969434
-0.73437967465
-0.480146818229
0.00495533692957
0.38264073462
0.897081369849
0.893797738812
0.831979012818
-0.02144566807
0.190285133942
-0.687165195365
0.523068040821
-0.414934324771
-0.710884825759
-0.493754690828
-0.553401299258
0.917975403059
0.473969771111
0.0916277723812
-1.00620302414
-0.818128473361
0.866520064434
-0.752649716364
0.473321777355
0.149965021093
-0.806893391797
-0.885114300059
0.579579690102
-1.0648899832
-0.690094232107
0.120890430583
0.644986986873
-0.226267524896
-0.569000403475
0.344153226536
-0.0969028097117
0.766485597787
0.254192364332
-0.23114830457
0.179779049044
-0.0960970712294
0.769652722853
-0.886986482706
-0.957554327768
-0.486258270236
0.439462598517
-0.413073708186
0.298421102681
-0.762205566496
-0.469260269638
0.873735100736
0.403036201668
0.650133173909
-1.06368389448
0.730938537558
-0.344693684316
-0.0256254524526
0.261084653682
0.427856285042
-0.0548440568033
0.210294103102
-0.995753512558
1.07369161341
-0.280274742476
0.421701530093
-0.743675351401
-0.361611773753
-0.83717546994
-0.51233383748
0.732830951321
0.127434309749
0.414374052912
0.0579512575652
0.28351970706
-0.884545521377
-0.272660889378
0.410226919407
-0.226805025606
0.485387750528
-0.109088976685
-0.00486602836594
0.154667904332
-0.972039411671
0.46594072269
-0.28646085121
-0.374008143377
0.186054251279
0.577611351912
-0.128308074626
-0.149856939195
0.0197624303822
-0.241545394098
0.983216303402
0.332679422866
-0.945832079847
-0.927749680868
0.87900103214
-0.0201658308784
0.369054046057
0.0296087096329
-0.918344725573
0.766355486234
-0.229697587102
0.0468826081906
-0.914102128189
0.311015103235
0.670044458601
0.78442685311
-0.0905362223806
0.850092728058
0.615795545115
0.589254653857
-0.911368631649
0.901192265226
0.486507815777
-0.280929202258
-0.350688781487
-0.430253319585
0.927748647052
0.820196142817
0.269564893533
-0.392394358656
-0.659356653943
0.966743732238
-0.514241725289
-0.725821618125
-0.645750423449
0.366108446481
0.86842364941
-0.633452473937
-0.377923974933
0.24816795211
-0.925458893419
-0.0529704975645
1.11240000572
-0.354578969675
0.663798996691
0.0562600017463
0.0213957447071
-0.737519177111
-0.779808132071
-0.980716900578
0.147645069118
0.447518528291
-0.605008380633
-0.301716432974
0.964202070011
-0.949089792363
0.119736708024
0.280639337888
0.200104104507
0.17785351797
0.796510570242
0.483162804486
-0.514244121641
-0.0306234197372
0.752065811521
-0.544589760444
0.271313605334
-0.805935279823
-0.0156744827273
0.326734872169
0.664331602819
0.427377810284
1.10206261955
0.709180448605
0.0215604217508
-0.641361785551
-0.707073038396
-0.269967987673
-0.214221792331
-0.63162882239
0.117116926852
-0.45850738732
-0.0585807437101
0.717112676149
0.626275437611
-0.160964134785
0.898741619898
-0.188968147804
-0.687172689423
0.663913819783
0.799588237658
0.0356256719181
0.116718808792
0.0888070800909
0.700985369433
-0.706237881754
0.392127953064
-0.327803607262
-0.419782853573
-0.474446248464
-0.275267441042
0.82197984614
-0.697854493931
0.890259639797
0.931163782717
0.220559568985
0.725180527305
0.140778631473
0.125754429097
-0.61856957122
0.875850638754
0.862725477522
-0.557186699258
0.362888654411
0.310407507783
-0.281119867132
0.291065504745
-0.00485392047871
0.847702681384
-0.842501240652
0.181401982809
0.230124189882
-0.595961133675
-0.997320154194
-0.620833697609
-0.727215144601
0.421624473809
-0.526806522746
-0.983239974685
-0.538714284537
0.0268618962827
-0.327683805171
0.105121678079
0.510539476823
-0.931373937826
0.412755641697
0.223041707614
-0.646462651299
-0.13232336494
0.372125988033
0.349832364399
0.530596784769
-0.274315907221
0.185812089801
0.646474296225
-0.247160723852
0.470853614664
0.89115062181
-0.954527913589
-0.874372007868
0.0771198968401
0.259455869574
0.761052488333
0.520703544045
0.94858918002
-0.0156664330951
0.685451352562
0.4978535223
0.0935923563775
0.316405488833
-0.52117123258
0.797169147824
0.234302741672
-0.867036682828
-0.0185644021756
0.888422710061
0.553358621245
0.825067482048
-0.197845523597
0.431704144257
0.117469239968
0.0955765595294
0.572660559389
0.807220680199
0.850566818682
0.730604277304
-0.638233812013
-0.81763355907
0.924134415067
-0.976257417594
0.593188881399
0.130173595505
0.796200572943
-0.928789180169
-0.381187486132
0.794960138888
0.439947875069
0.817522405172
0.480440711521
0.0496799061849
-0.922996006822
-0.894705056707
0.0330911906866
-0.544578703558
-0.723764256044
-0.653574571602
0.195548037398
0.655154890243
0.74550780623
-0.431081308631
-0.589680778643
0.546544745999
0.805432560809
0.305639064558
-0.363584589228
0.316972377467
-0.0651054676748
0.101596407961
-0.373663552521
0.15737453437
-0.888569990667
-0.310242018818
0.142383881437
0.247712912858
0.401951543216
0.880285791623
-0.579608926617
0.797329612124
0.717112045902
0.0105587365962
-0.280672255648
0.765646980103
0.167430265151
-1.02219770488
0.548655834505
-0.612999448461
0.910865363768
-0.815268770747
-0.0546532725268
-0.617311076541
0.158329756111
-0.421298150881
0.0669692629776
-0.745863567578
0.139853753611
0.499902875632
0.377796060072
0.0428147595332
-0.928154785288
-0.0369075748522
0.143868955809
0.406208040366
1.11318408614
0.0292214281464
-1.09385000977
1.10363977706
0.88548199271
0.218588633006
-0.0214575970064
-0.81606277587
0.564431385765
1.09425913927
-0.00445006170339
0.10836972408
-0.0560199017218
-0.157122678732
-0.806669552258
0.60997457087
0.577242422699
0.332693757106
0.0666781459743
1.10441127677
-0.899161665732
-0.867699008453
0.161030056577
0.630855250525
-0.41976688589
0.216796272701
0.642610356028
0.502121206346
-0.0733154144353
-0.230921474916
0.825576925012
-1.07373474496
-0.0404612534831
0.251257399305
-0.192479768364
0.442354554384
0.345790660436
0.97909666804
-0.882922152837
0.535703586347
0.998438060718
0.215696588087
0.311406502771
-0.182764334195
0.813758026719
-0.601912188769
-0.801252194359
0.165634928638
0.350035033393
-0.872187248874
0.269991546214
0.693888297917
-0.478993780708
0.786955384294
0.539057271999
-0.167459824917
0.796202089937
0.100420219258
-0.72346647496
0.964757056287
0.212640952374
0.264660443095
0.838532564689
0.211777410952
0.247340227244
-0.222196716923
0.780654758773
-0.447224426111
0.984601938815
0.377038930322
-0.730399012289
-0.766380637523
0.893432588742
0.717225927662
0.2424057039
-0.891445461574
-0.649937333145
-0.393116229526
0.0797673962889
0.410538758833
-0.321737944644
-0.908972044722
0.0928191399546
-0.492055199511
0.43124046486
-0.00929604093719
0.896044469837
-0.508568974412
-0.771145632742
-0.616776081546
-0.813704252346
-0.4175718502
0.244583553187
0.930040288454
-0.916878965974
-0.681980289601
0.384780078243
0.815834796134
0.362899605663
0.0330874619563
-0.165527740672
0.326079228273
0.0412877064717
0.0016323154448
1.00925468811
-0.684429371487
0.25609855368
-0.623415878573
-0.0634444338542
-0.419860208529
0.749936268897
-0.592054691552
-0.414133457984
0.760699024048
0.472377954583
-0.896413284654
-0.170750655457
-0.796878819347
-0.24421252935
0.215017588587
0.0666448759798
-1.14338787391
-0.711608689574
-0.636803577583
0.923004615796
-0.744469483916
-0.447778307545
0.447188426566
0.374685160905
-0.920868701426
0.492177798094
0.81654065682
-0.147154755241
0.388783848662
0.463323831887
-0.311340900589
0.990665732454
0.339459135647
-0.532556019398
0.683768901793
0.895656522331
0.977918181908
-0.2702517904
-0.914654125421
0.0352424694556
-0.551240607028
-0.54043655671
-0.543162988012
-0.944929655029
1.08080192733
0.0793168699795
-0.305816660521
0.65870063698
-0.276060328089
-0.217016024646
0.0941016217456
0.23902760943
0.0971311996639
-0.698928191981
-0.921145723991
-0.561619432088
0.207136310885
-0.0262150929127
-0.611325135663
0.456669162796
-0.250371559898
-0.147710371001
0.281952626101
-0.198114550469
-0.522417869062
-0.281117481571
-0.425532126194
-0.880786855554
0.293913736528
0.0986358378124
0.288892538729
0.703676191005
-0.443124117143
-0.847813325168
-0.988354898334
-0.976723110235
-0.304288806429
0.154897953779
-0.650463140626
0.0679345025407
-0.651882796925
0.650324945393
0.403807543946
-0.633842842377
0.932415551992
-0.946195354462
0.867660049147
-0.275727251245
0.0703209989675
-0.911868522593
0.240108595731
-0.961139350031
0.4397072579
-0.849305682313
0.270388604281
-0.3451360688
-0.583504554039
0.813137200829
0.748194960545
0.463332694308
-0.123873483715
-0.933602906873
-0.674689842316
-0.279955018018
-0.823335168855
0.353396815589
-0.565122966061
-0.496303511912
1.0527956468
-0.551994634296
-0.841601499997
-0.784719214864
-0.583630627811
-0.297811902035
-0.676483150033
0.582584095974
0.632777482012
-0.0148714297541
0.323489671764
0.735758862766
0.537923981145
0.48454760279
0.261052584737
0.0294289158877
0.398817783098
0.00282965390528
0.695704168113
0.569329404848
-0.400487915115
-0.761713474717
0.331884238404
-0.743735681303
-0.945465698698
-0.503461329361
0.277182223464
0.438827812224
-0.820114414373
0.643979167016
0.978082809734
0.7908535657
-0.0942785839081
-0.486736757978
0.240497194592
0.25360196588
-0.383432906729
-0.179849974652
0.99037702235
-0.619713320465
-0.453594779793
-0.711398209479
-0.4829018379
0.755436169288
0.565900437139
0.584855462429
0.0744314588082
0.574113277612
0.583490325959
0.0863913259029
0.4830685979
-0.331350711399
-0.597910149996
0.284171691688
0.154574511455
0.0610753587791
0.664289769818
0.129629550975
-0.869432540699
-0.582793697756
-0.694775871387
0.611558142585
0.815945069805
-0.0138377786907
0.490286691613
-0.561062933127
-0.798209263594
0.269063894472
-0.530266653875
-0.69782966195
-0.704068791209
-0.647085710474
-0.356124977487
-0.969377517838
-0.751849065978
0.709607877586
0.0855910935172
0.097985305411
-0.409071784389
-0.175204147607
0.177773236372
0.564754611243
-0.719498863955
-0.805161065472
-0.776200774282
-0.372636843405
0.0355443042632
-0.783107824199
-0.763787308791
-0.736292246635
0.49610443349
0.0929360963107
-0.0011100645208
-0.618896180803
-0.158399064776
0.828020466792
0.583810695882
-0.802586667519
0.238168787885
0.96404094203
0.729867542383
0.723407316582
0.401144185109
0.290678542141
-0.735674712485
0.192258149171
0.344587013569
-0.683797054797
-0.499962665788
-0.747562055308
-0.495743416621
-0.569213937598
0.473719083904
-0.591410757869
0.37803826068
0.529175466856
-0.228847430127
-0.399292178043
-0.533679189237
0.264973490364
0.867345045242
-0.797016428847
-0.84279999298
-0.442865674015
-1.02802350446
-0.789468535383
0.931117498736
0.771201424223
-0.80390633624
-0.290303971432
-0.637085089252
0.562503039816
-0.248415322009
-0.505871009359
-0.132711277468
-0.347920516191
0.611147964901
-0.68784466161
-0.587881392886
0.347914795871
-0.374807963105
0.948779146851
0.278141594288
-0.791063419444
0.902666588714
-0.95150808178
-0.914312792187
-0.745336983402
-0.175894312157
-0.531322994878
-0.597833635074
-0.0875074916343
-0.117399385007
-0.336872626928
-0.984554837819
-0.693621087627
0.0436401036796
0.432096895556
0.787673561678
0.659957966537
0.127968048808
-0.593014141867
0.455981620163
-0.473654952019
0.481684579398
-0.430438329969
0.965424011265
0.499373592128
-0.0703488810707
-0.221324894506
0.296106934709
-0.252388730211
0.338224462991
0.417077229336
-0.000517423927392
0.967545157132
-0.038572451781
0.955154029577
0.795010837995
0.154952402411
-0.421045389314
0.139840708989
0.421520543709
-0.292410657106
-0.263435551478
0.84918491753
0.0107106540283
-0.828700284206
0.0740704797523
-0.631518116582
-0.0500642602306
-0.771518146419
-0.991824140726
-0.0839174757132
0.37297540264
-0.914740936058
-0.314566086
0.141073637029
0.576639053243
-0.691920891417
-0.378591356045
-0.792448538403
-0.436498704385
-0.972042006365
-0.352420768095
0.241303040154
0.425589970391
-0.738162996926
0.886286783039
0.738243738228
0.443849183429
-0.924308246233
0.915618722372
-0.461206245409
-0.608574635759
-0.148554722362
-0.548590421505
-0.868990603578
-0.0161333558852
-0.615545743627
0.629992924698
-0.366363889765
-0.425794246481
0.892691641519
-0.26019869553
0.067133068396
0.538910735581
-0.134995450383
-0.173078786929
-0.937311945712
0.372804098814
0.946576293596
0.115389684796
0.780783360594
0.250770241595
-0.78190763232
-0.0338120298976
0.0930406320064
0.509460728154
0.384887725365
-0.28327627209
0.178299439979
0.679352584185
-0.110643425794
0.76015918796
0.856523236563
-0.73941007579
-0.459265032916
0.830282082071
0.0905149637797
0.822150893743
0.925102193354
-0.980650964881
-0.651855029377
0.582092424211
-0.36370267842
-0.064619279594
0.764360262139
0.0878751741156
-0.0387468978805
-0.244809030126
-0.159217106292
0.588293098154
0.806786020474
-0.367913092148
0.16672577953
-0.370714456902
-0.276992975431
0.109876249722
0.536761372583
1.00311626403
0.499437994978
0.756839625229
-0.456081112411
0.605077592008
-0.85197167322
-0.0450677936108
-0.802935695943
0.624706993746
0.618517208122
0.30773244722
-0.271695408508
0.742754012834
-1.03217647585
-0.218868728983
-0.938203117397
0.739664852812
0.574343791521
0.299582972214
0.989697030306
-0.289507358944
0.411869528811
-0.394100114305
-0.591934401908
0.343937080129
0.105882314542
0.895869447419
-0.37657090303
-0.447283044422
0.610033749268
0.222174812461
0.610522856068
-0.303192710132
0.434298744387
-1.00955088089
-0.413615626473
-0.58890711131
-0.582693019635
0.900828637147
0.0552284383311
-0.0948289484835
0.304991216249
-0.814086913153
-0.0434063359043
0.444688682207
0.935287483869
0.738303623916
0.601265440268
-0.19621289291
0.646906098463
-0.0970838611254
0.856448786196
-0.607586417459
-0.38306505208
-0.466315074368
0.972456131961
-0.330498846978
-0.281404895142
0.762721545383
0.554621132217
-0.989377488321
-0.334956154869
0.241268242104
0.0693784114015
-0.879031252362
0.93446823741
-0.868219664309
0.717732642088
-0.658720738762
0.774115312629
0.0557154696561
-0.626313630808
0.619586197725
-0.437546244676
0.139743808928
-0.511619711491
-0.392771403896
-0.429879610082
-0.056045429332
-0.525518992829
-0.469489168639
0.670792675674
0.677949290039
0.266583727355
0.285761069163
-0.372293203705
-0.50324552487
-0.688346565837
0.851683206509
0.956978759153
-0.0744960439779
0.447441126789
0.86521967528
-0.750626877431
-0.649130809543
0.705976138869
0.164213318219
0.197285894032
0.872148218082
-0.711232328032
0.494971266451
-0.167393453181
0.786117519117
0.523681428181
0.417899146224
0.42698106097
-0.920926647716
0.998005400301
0.866296883398
-0.808421884735
-0.383529312907
-0.54101825236
0.458934126161
-0.153107117935
0.725365227672
-0.454399710631
0.529402999509
0.877987897023
-0.874371066545
-0.262928783278
-0.985874372015
0.366523307787
0.470905147722
-0.220424039369
-0.113938342103
1.01791744451
0.0989716860974
0.635728612704
-0.226072112195
0.0189299839867
-0.0603484470496
0.231895104294
-0.997674341528
0.501860229187
-0.255169076529
0.655420966536
0.78252224489
0.0590765360406
0.170408754345
-0.838452735851
-0.605691741351
0.603178224102
0.325355051516
-0.952751219067
0.153976249049
-0.0102324080153
0.481387885749
0.812608767848
0.503957443769
-0.741855671958
-0.0937219709299
-0.0851679344886
0.910701709161
-0.137458656514
0.988325921558
0.323503815208
0.644558040903
-0.965264934205
0.845741432141
0.0240031118997
-0.288235387157
-0.044804147455
-0.810260200074
-0.536865827304
-0.596346729072
-0.474783446933
0.861158872279
0.781193830827
-0.300783843964
-0.22057618535
0.472247317612
0.731693783495
-0.606562221191
-0.420922244536
-0.586604143954
-0.120856235609
0.64265256496
-0.434684940511
-0.925084048141
0.30965800535
-0.857980447803
0.674334574255
0.371072438889
0.813691410478
0.993058264583
0.868200152837
0.789291263597
-0.225267133645
0.399843791253
-0.0982268679073
0.289968447057
-0.893308819426
0.244418129188
0.193231691159
-0.27324655393
-0.327095313096
-0.340401162291
-0.199840694875
0.463103992167
-0.827922659571
0.234866114089
0.859153943435
-0.392701045692
0.00515442983325
0.997824165156
-0.28897733219
-0.154226428346
-0.594501785876
0.22185948518
-0.794360321718
-0.390918744981
-0.985705139052
-0.171983750812
0.614973726521
-0.0582389273252
-0.286560123905
0.385791779176
-0.257022112411
0.963545590191
0.185328840495
0.0888041667111
-0.836620321574
0.320925509802
-0.669851298312
-0.647541140129
-0.710282307488
-0.967270723551
-0.438432328286
-0.103277339807
0.990723333083
0.787302481657
-0.0301166828343
-0.206265046405
-0.589023079966
-0.0755664347716
-0.510894556901
-0.645729885511
0.174393951006
-0.538757466828
0.651057250806
-0.977990015231
-0.950048655611
0.313367321344
-0.849075556518
-0.531532386576
-0.909442028332
-0.155843472099
0.602083025208
0.300344515055
0.885232879025
0.534227340269
0.831255042469
-0.310519664118
-0.812173991643
0.664170413597
0.323127948184
-0.461428832604
0.397203916942
-0.605640625768
0.486079263383
0.05411288095
-0.613456981164
-0.156739250723
0.107814202532
-0.725628199379
-0.90050673112
0.290958201182
-0.0166287318019
0.394604546825
0.620749425807
-0.655886395871
-0.7389627322
-0.643162230821
0.267135999955
-0.851892709951
-0.526981382276
0.89524758718
0.133402401047
-0.257551822051
0.0871956957955
0.654594395639
0.913244548261
0.798894521869
0.168019472034
-0.454177519664
-0.831769617932
0.0340064904442
0.989274754653
0.486903997196
-0.58661212679
-0.161625478938
0.659632298599
-0.341256987238
0.557635552924
0.416339908229
-0.457111067183
-0.660611610799
-0.194948889117
0.951778220653
-0.0629294636535
0.489543761755
0.0466383478059
0.988609071629
0.797464174959
-0.162230279342
-0.80003108136
-0.220746195734
0.362291296058
-0.870212877305
-0.0758148275803
-0.521658264402
-0.573682430444
-0.539543706108
0.692899020477
0.912955050292
0.732155213312
-0.0288566334433
-0.792098746896
0.790860048226
-0.553799388058
0.811453543389
0.214566143036
-0.947915848833
-0.0515320962231
0.457849284187
-0.467518149173
0.974450549304
0.315238675614
-0.803869028833
0.584629554305
-0.483189185544
0.877997383461
-0.990289589238
-0.574155081936
0.00447866548958
-0.477969223207
0.907846464733
-0.217521069079
-0.250026382998
-0.527312753685
0.816319659245
0.574494206349
0.048521172267
-0.150881329689
-0.964222905531
0.0729915100604
-0.758622013325
0.355553482083
-0.897484992716
0.104149753029
0.115076265838
-0.642472802022
0.739231700417
-0.431963594873
-0.840058816914
0.879793203148
0.133998355175
-0.350876738883
0.808543653955
-0.000432414412261
-0.831305375329
-0.330839257103
0.0906670279909
0.0596091235696
-0.0956797170309
-0.78418357474
-0.104619080123
-0.0122060819449
0.242950961864
0.442497245052
0.918319409825
0.428423970667
-0.15445091442
-0.569327643008
-0.691119826122
-0.511667178762
-0.503225569219
0.0438472166577
-0.374488972074
0.636206488058
-0.649846124353
0.463033827503
-0.806587205522
0.59346146179
-1.01967355381
0.577373028225
-0.623036479769
-0.334619164239
-0.252265096481
-0.388014324502
-0.411270408084
0.900427847239
0.947291707155
0.159613401936
0.023748738656
0.0955570408377
0.701424256807
0.294269689144
0.31251478811
0.0432585117714
-0.752195166616
-0.129680517367
-0.905973805154
0.876188226378
-0.647753250932
0.581242809925
0.942107051346
-0.947029725379
0.0761475469926
-0.157103331144
0.114133779083
-0.592946993611
-0.619768490561
0.489066675818
0.615535656238
-0.812328306009
-0.624523456622
-0.337605245009
-0.124934833009
0.992115505533
-0.766556573751
0.281342875446
0.790136525214
-0.401614059443
-0.665003695552
0.845958611253
0.496601616335
0.168036073059
-0.239473180769
-0.527728228889
-0.115702569548
0.303158532667
0.405532807611
-0.161289337322
-0.282605801557
0.946696757452
0.564860123944
-0.749288453763
-0.368955179311
-0.0836575812601
-0.273927093289
0.573868136878
0.905471426014
0.853820485275
-0.220927440775
-0.754731814975
1.01274790888
0.896220733836
0.30688961387
-0.347332463342
0.274027709374
0.340447714047
-0.221772157314
-0.888836756388
-0.0348096414255
-0.728960313351
-0.0156290115638
0.321621605792
0.124325581917
-0.488493073219
0.590992025007
0.956011727326
0.69526344032
0.354399493315
0.634261406622
-0.704897216843
-0.624909308027
0.684244879043
-0.504931998801
-0.330256340416
-0.54475243112
-0.914527401576
0.842549410518
0.375891964191
0.565299984682
-0.419670660639
-0.691952254651
0.366849981087
0.433953474449
-0.797511469643
-0.478832172089
-0.470992355012
-0.653839404136
-0.504087284865
-0.840645248059
0.250348975573
0.311745698248
-0.707584381517
-0.552449181628
-0.0392590057621
-0.00991072560366
-0.198662640658
-0.109861470404
-0.478722352724
-0.685822368339
0.400921741763
-0.0845124047024
0.844906866452
0.911508422056
-0.782322978465
0.67341052466
-0.807151712234
0.346968736427
-0.833665518762
0.871187490309
-0.482627127961
-0.636613725236
-0.328999181539
0.439958830897
0.415718526437
-0.0321712210856
0.414291228362
-0.319902076462
-0.710724912742
0.408611844422
-0.0568433626337
-0.918257462911
0.867941723342
-0.391541916878
0.632392764239
-0.0830034034984
-0.876497664868
0.169655766186
0.235032968015
-0.841344974408
-0.717272809354
-0.997453417314
-0.231584003789
-0.552463064447
0.770816421612
-0.991477894495
-0.507374144981
0.458325644881
-0.415276455429
0.359342970596
-1.02324246492
0.619050706923
-0.125412008001
-0.702134500757
0.767905586502
-0.149742614577
0.267037615865
0.143734264566
0.538465450502
-0.649700609813
-0.232017133743
-0.365514538687
0.296908648411
-0.963286594646
0.372033364231
0.0521524940943
0.958804480546
0.46693910384
0.4835447386
-0.603251157616
0.817080498107
0.0292076236617
0.66167780405
0.682137584134
0.360281049341
-0.713262032507
0.561235825258
0.256143086778
0.0216260934167
0.0843525772667
-0.0344446460554
-0.754209029519
-0.579445545219
-0.689820977841
-0.709980323868
0.268068930112
0.876509037649
-0.0327849155007
0.789209860582
-0.0654589174838
-0.876474829443
0.431348194417
-0.158400536719
0.724196094573
-1.06171702971
0.939147181386
0.323404980712
0.85676252953
-0.412155528425
-0.691158904077
-0.962617490151
-0.884888869734
-0.462717636407
0.302505076234
0.591377749245
-0.0433180382295
1.04007164296
-0.359127220973
-0.621207024283
-0.388710489402
1.07223654235
0.618614215232
0.202344351405
0.734373657299
-0.443011355909
0.840957610902
0.416259768574
-0.388439552662
0.791912659319
-0.240519971091
-0.25507351626
0.693109957886
-0.538157660611
-1.00020876621
0.303202254848
0.284742402198
0.751172805947
-0.293364102616
-1.03864036554
-0.956456089643
-0.787000024365
0.297542089444
-0.657272691581
0.545902780034
-0.443457581113
-0.617956888939
-0.276013268614
-0.406534072856
-0.862799032061
-0.0651238666571
1.02666371077
-0.921472779414
0.266548671924
0.205730492216
0.477180541702
0.262423880757
0.0961568888872
0.210020055101
0.160359440537
0.264673775826
-0.347834108535
0.972746240513
-0.708902709372
0.335299190994
0.455555541839
-0.837828297885
0.447045818396
-0.92171083397
-0.978086573891
0.00412021587826
0.690881040054
-0.569819147443
0.556011497092
0.616309825931
-0.12727353825
-0.246350225236
-0.0816282207894
-1.15999082542
-0.531406262546
-0.35842211386
-0.462438350913
-0.27401835802
-0.711911966412
-0.640492577611
-0.344864585375
0.640453511529
-0.532917793044
0.332787523683
0.0312453028575
0.29784627015
0.331526897673
-0.626484496271
0.0562516511916
-0.791826804015
0.486433891551
0.193730524357
0.210344126465
-0.687800727217
0.0137227588205
-0.984860753124
-0.126381147599
-0.117230742319
0.342651911608
0.0535942451891
-0.896632641865
0.623993130977
0.154563890673
-0.287460002215
0.111704543799
0.781946011253
0.260260067751
0.292138051942
-0.403621753679
0.283450345664
0.430481800589
-0.618480318299
0.937301777604
0.894249688846
-0.199817112331
0.630149313504
-0.919776368032
-0.134591555156
0.53654182198
0.737383958959
0.105433448247
0.645957217382
-1.07249357181
-0.0874054192171
-0.10493846201
0.20488517593
-0.959079844731
-0.843463981431
-0.138317983492
-0.623178758326
-0.452377020784
0.844072508868
0.56803995094
-0.282331828966
0.473581538918
0.232287701805
0.313867518961
-0.158928499128
0.613949430958
0.0190947442673
0.776228888401
-0.245275293263
0.135472829684
0.818663760377
-0.519817123579
0.411125000718
1.08790784271
0.157201773921
-0.349323788106
0.501655001238
-0.216347556189
-0.569339467137
-0.786227652948
0.0501823209169
0.514682681099
-0.00661193984659
-0.236461481316
0.024211552575
-0.7714110736
0.797844556244
-0.0403401580517
-0.43819238422
-0.0589325674465
0.846574069638
-1.04304154557
0.654809701947
-0.763937273494
-0.801905122111
0.079301080487
-0.787950654212
0.157232499815
0.644903333472
-0.394580848708
-0.548207774698
0.897755927784
-0.750035116117
-0.195978902847
0.70719060716
1.0449768041
-0.924473423837
0.792847258166
-0.365085297248
-0.0757714988516
-0.559450076936
-0.836760850429
-0.246745523325
-0.267713321511
0.961074382916
0.0105967389013
0.702486866239
0.612928722054
0.304959736253
-0.971274857454
-0.584701192025
0.754843791232
0.772634206825
-0.0956410891227
-0.241689058162
0.191870007056
0.998772022582
-0.848132676484
0.376308005496
-0.965820340353
-0.910034282145
-0.999005765742
-0.617644913633
-0.521269591781
1.07564463872
-0.406969673094
0.363758207657
0.350489565645
0.0269144085115
0.0168462286918
0.562619892581
-0.642085311756
0.615867358411
1.03441540689
-0.166001253257
0.346034566599
-0.571487878837
0.863043535767
-0.512294713668
0.879167427552
0.885688247312
0.537999475047
-1.04660625465
-0.484437852038
0.0904794182957
0.597633254672
0.0020819982208
0.234396110372
-0.81129974941
0.69069041539
0.0520483042384
0.825775074538
-0.713924289437
0.269957060309
0.4714808725
0.718879272784
-0.397141391234
0.243501795149
-0.775773844008
-1.15233262651
0.328567736683
0.437058829509
1.04896776408
0.00270775820541
-0.996348588095
-0.973075501578
0.920547776197
0.409253105248
-1.03967401851
1.11258162303
-0.776621005593
0.854411417036
0.892008211895
-0.797975776889
-0.315891085418
-0.192038754752
-0.806268168313
0.214895591012
-0.355935715538
-0.642821182368
0.63767431537
0.199608285549
-0.972392551071
-0.156081016443
-0.418512555835
-0.27949479445
0.156010839079
-0.125213422922
-0.353447818276
0.284130964195
0.455539943057
-0.835674278332
0.353140991057
0.598893208536
0.376716970851
-0.360455949084
0.337775157764
0.490739565536
0.649891423055
-0.757572342991
0.255318286796
1.01836903577
0.59561858954
-0.195450889793
0.520170062194
0.72837515989
-0.690323151947
0.690106618316
0.887276931607
0.61549933685
-0.150357775245
-0.483980535875
-1.12889702539
-0.896763400196
-0.327554700222
0.146698873136
-0.286583602753
-0.751160965779
0.437076611235
-0.367893316944
-1.03833926332
-0.283765881183
-0.789982596422
-0.122831360913
-0.891638017233
-0.11615864826
0.109339254824
-0.0605036593613
0.944079428054
-0.929393209475
0.408873252816
0.73114697584
-0.650093146472
-0.247724089994
-0.10844042988
-0.151730160528
-0.660755955112
0.619051041171
0.543206880473
-0.254150889466
-0.373244646788
-0.672225110156
-0.036437852879
-0.83211956805
-0.56312990884
-0.840879253093
-0.73408511075
-0.789590301646
-0.770893378985
-0.454917786153
0.635748275241
-1.01002560389
-0.437464528922
0.819756865482
0.427548093776
-0.353327258233
0.522085099744
0.83453377304
-0.783187762127
0.813579378868
-0.0603062567414
-0.934971339652
0.885975497672
-0.44554802901
-0.889014152275
-0.781654110658
0.0395632652242
-0.40881842442
-0.293923498395
0.344636751206
-0.160883033601
-0.118201731121
-0.19363523087
0.064789715365
-0.300003127122
0.0542056812465
0.989047434502
0.50437719639
-0.94623462096
0.202140528514
0.185764611263
-0.71865793974
0.876471693845
0.176923194336
0.487481048141
-0.769870819011
-0.161086918615
0.40339940388
1.03119833152
-0.904476619137
0.255236399114
0.598585137237
0.0992905611491
0.208039499415
-0.929138257586
0.537080996365
-0.927541345245
-0.80910203911
-0.937788920382
-0.490847935415
0.320532044244
-0.0605045681513
-0.144825241069
0.201160920885
0.134534206721
-0.0819283088896
0.503679333223
0.562154001312
0.750289947887
0.941485719207
-0.932998088882
0.164222013682
0.545974451669
0.802801928266
0.431056351492
0.761618539465
0.607424855837
-0.64521827342
0.89198626702
-0.572284790084
0.951950846356
-0.376003359025
-0.238961502613
-0.0450993806725
-0.272086662319
-1.03363598592
0.876828562575
-0.631521726759
0.354639342083
0.055613443443
-0.86995855034
0.599955746598
-0.53640222004
-0.165396011646
0.136047523491
-0.106591482777
0.543912522981
0.459136606137
-0.296217440731
0.41460462765
-0.352689673253
-0.456349432243
-0.94977638871
-0.519316671677
0.506937864596
0.720087254149
-0.0180760703098
-0.387391032239
0.00284576420826
-0.661996252385
0.22769477703
0.963309995492
0.385659977749
0.644990581735
0.7835665763
-0.0466612658788
-0.642245920839
0.18795087346
-0.536647484877
-0.684844006973
-0.722305338321
-0.519342366345
-0.321711011537
0.614448015086
0.456284993095
0.0548266806253
-0.305850047441
0.188243681252
0.883164645124
0.749021827775
-0.140290431584
0.0179442884769
0.240066494271
0.843860494192
0.334215625993
-1.15647241476
-0.306114940648
-0.541182432049
0.483036454874
0.816064920376
0.173420999376
0.531286706021
-0.78990344406
-0.16190982575
-0.475387846485
-0.483906331073
0.371673444059
0.123952952739
0.565532485373
-0.502943775536
-0.62880878501
0.397887711675
-0.811730499715
-0.0857026089673
-0.151938269032
-0.508581784957
-0.300196658601
-0.517351644495
-0.714968616609
0.793885394197
-0.022546867083
-0.13470986396
-0.945458855649
-0.395778383209
0.231149351223
-0.205862353039
-0.44397227478
0.462983296123
0.943467657686
-0.339008784388
0.714053337634
-0.662464597024
-0.96272680888
0.385169313178
-0.642604401606
-0.365726769519
0.215034945386
-1.07592411332
0.46577714856
1.19424081764
-1.06514575681
0.659015821594
0.896033130793
0.899065340315
-0.379405030571
1.32069461701
-0.667769646228
-0.718449902233
-0.79507864417
0.312119247808
0.00123071458887
-0.725619305916
0.692647756554
-0.460496478709
-0.215616998147
0.386834617955
-0.906856406866
-0.20045275826
-0.137840422339
-0.377532549073
-0.882543974793
0.283877391968
-0.839878699281
0.501510639379
-0.0554837641394
-0.682946038789
0.811991899974
0.799060943365
0.578069441351
-0.74403356789
0.239071782017
-0.704736664619
-0.115795678289
0.776850750688
0.248719418867
0.928720649009
0.62406358938
0.727969223098
0.929591611225
0.388383523336
-0.739204069908
0.669081700318
0.51826177553
0.0412790079174
0.36001860243
0.253090565386
-0.437361795493
-0.212082226584
-1.1634660304
-0.177396344768
0.668531864375
-0.220383584695
-0.847233764335
-0.315244636411
-1.34045925548
0.914974207156
-0.283975726981
1.10714587693
0.59330812383
-0.170461568643
-0.507128376567
-0.776080038613
-0.177155280687
-0.669567044906
-0.591925855945
-0.912787787652
-0.992450041716
0.253808991255
-0.176518445074
-0.115045699933
0.390680831865
-1.07315140442
0.523151101634
0.402247360056
-0.934335925034
0.147682737876
-0.793941595352
0.0796386977201
0.411695304803
0.852826769022
-0.417540904982
-0.294838508191
-0.52239004528
0.869550189476
1.22591577767
0.228380885507
-0.715017700003
0.0736633262421
0.641936969253
-0.327780533248
-0.794917617708
-0.693921153143
1.05253638093
0.169865308018
0.772198487304
0.613530537055
1.05123477368
0.503329724665
-0.868423680777
-0.23972247444
-0.713829479527
0.433505472255
0.754301195543
-0.338344583792
-0.66612992042
-0.0396464092191
0.418566903003
-0.170774670447
0.667957917884
-0.0919713476071
0.776913024942
0.396922915525
0.873210678363
-0.199526660485
0.894733026445
0.0406270205453
-0.692015849289
0.31802174996
0.594088845335
1.2274070727
0.41774383754
0.50930815136
-0.525702558284
-0.48969098731
-0.335480022993
-0.444968583104
-0.539944904355
0.579058587925
0.480833466738
0.487072918104
0.557849203872
-0.667871040034
0.347079027467
-0.26952614279
1.0135619823
-0.629977644693
-0.72187511462
0.628454314158
0.881675650789
-0.667113738277
0.101564250716
-0.423842326028
-0.108333395199
0.194119924394
0.163749391559
0.621815309351
0.324059744348
0.142605133298
-0.407635625465
-0.320582553285
0.676963832821
0.185137884217
0.793770598629
-0.345903443415
0.0378476329406
0.902426122513
0.947435751183
-0.177766348758
0.878346732948
0.122070127774
-0.299110547426
0.704482616249
0.694959806506
1.06975106184
-0.305842051953
0.161519604787
-0.704253594782
-0.400452451884
-0.542989632951
-0.489170216488
-0.201625470208
-0.704367338904
-0.652380195795
-0.0499365168681
0.755853581418
0.835025672388
-0.0583473664593
-0.536237723641
-0.469204651617
1.12436246468
0.292127859694
-0.437053977773
0.333042852477
0.230536675854
-0.148810096794
0.726209111492
0.740274117858
-0.802107764831
0.185813782293
0.377542610379
-0.959800186306
-0.583888603169
-0.0290595334882
0.0379601054426
-0.885662832677
0.123553986634
0.197906288719
0.285166039862
-1.11553179968
-0.659696893863
0.415951744446
0.440417454602
0.304406529514
-0.213407321529
-0.094506114689
0.681373775243
-0.0516646533405
-0.628541094688
0.441562947322
-0.00945525773887
-0.697165238618
0.0935877861505
-0.583600389725
0.642946788327
0.0441179672441
-0.00667176480822
0.665475066173
0.60244156203
0.820357546257
-0.128444082532
-0.192206478592
-0.550276682279
-0.163153439317
0.439693105131
-0.242540995559
0.279387163386
0.579967199701
0.00897339203753
-0.395903511019
0.363799166164
-0.933938956066
-0.152931165879
-1.10174694972
-0.129158183715
-0.354681499288
0.308962217599
-0.0303642619798
-0.994143897449
0.340923914665
-0.0301694868902
-0.893841891013
-0.657391712233
0.5109170074
-0.0756110962061
0.502543183539
-0.0393593896201
0.353733901431
0.0825657220588
-0.195214096159
0.511712644042
-0.381049065619
-0.388055612325
0.393924216667
0.832468605269
-0.107312506995
-0.154194411094
0.685023522385
-0.885929464703
-0.137574648375
0.473746776397
0.0249414823856
1.39469623283
-0.845894690412
0.0950260764434
0.691486887057
0.590293426591
0.573816396693
0.167719031112
0.335522348639
-0.606669829813
0.382628565396
0.325106178446
-0.279272393224
-0.677794253841
-0.741043217391
-0.775682134098
-0.0388015109048
0.371771856063
0.320066675725
-0.348591515116
-0.723248662344
0.317297805983
1.03865393793
-0.0847627149373
0.0890282175391
-0.642069790124
-0.592680393594
0.03327308365
0.469813912278
-0.689050774339
0.417008483504
-0.934028485232
0.805651163928
-0.338150238879
0.221486845895
-1.03338032412
-0.858452932632
0.710263198327
-0.330560335306
-0.96543672946
0.821039641013
0.0624781791887
0.386117024347
0.923427948256
0.52988540416
0.692821363232
0.109057146501
-0.145609622413
0.0617506596479
-0.38418948778
0.606619481556
-0.00318435764427
-0.0769753743522
-0.122337041295
-0.00506900094018
-0.4783026833
0.234960257566
0.108490702982
-0.803388918731
0.501971043844
0.616127102864
0.756614636102
0.377944146106
-0.880076876863
-0.0470727055553
-0.906865171273
-0.164249098744
-0.0770205059542
-0.950896973151
0.866892740446
0.912572673665
-0.154567325525
0.26330824536
-0.95103093701
0.381707766741
-0.839476034167
-0.613590800498
0.298913301755
0.308645857286
0.761581788914
0.194978272618
-0.722604981545
0.673231890671
-0.725754575622
0.707286848359
0.860244029045
-0.0901845661621
0.535228157728
0.276413231043
-0.0889436434262
-0.591121877634
-0.274953343447
0.490919151381
0.198045560518
0.716168638516
-0.217304347551
0.83332644156
0.837571135617
-0.0397202771646
-1.0730489725
-0.809246002265
-0.463055744466
-0.205883303779
-0.319111714852
-0.752680856701
-0.189755467244
-0.240238442139
-0.715516970552
-0.234687950336
0.148584216406
-0.12837860469
0.671008454073
-0.802622070743
0.235069698187
-0.936945464985
0.77783410707
-0.848158578676
0.495792713495
1.06867338442
-0.112628836068
-0.381522915222
0.892457838075
-0.209565601646
-0.0872410771867
0.578206799662
-0.473697152712
-0.0118796716471
-0.609188208719
0.763069315069
0.428091581799
0.890623467569
-0.482715735125
0.79156276381
0.695623684724
-1.04469002694
1.23664539199
0.966749442838
0.730292295236
0.213206788833
0.635111377893
1.32725845282
0.28641380573
-0.814375455023
-0.654339443411
0.795971938962
-0.46800632397
0.576565029074
-0.344685259165
1.17399085191
-0.664559487932
-0.557391494334
0.918656232571
0.680092548371
0.32253210583
0.898770809802
-0.722196096331
0.0951695916574
-0.203273138793
-0.930625909725
-0.973631725702
0.962973049047
1.05781218614
-0.683063240906
-0.311191819144
-0.306971075625
-0.954489516857
0.198654393828
0.197933214999
-0.581173335717
0.47882379242
1.06308864849
0.742234380762
-0.522171015187
0.523389911835
-0.185067094247
-0.996867203369
0.37886569072
0.147081741659
-0.803479332403
-0.414904799568
0.0636840138282
0.611455885613
-0.10225458715
-0.133373514207
0.853779760469
-0.106683250086
-0.312052803457
0.688806101161
1.2152952322
0.693506967171
-0.464139470732
0.825466984445
0.677959490895
-0.536358049884
-0.421320001426
-0.546438059031
0.438638757354
0.79529567214
0.223283392122
0.525005521959
0.211866004494
0.186445460838
-0.33087612746
-0.779274470853
1.11653336732
0.202238814727
-0.762554969898
0.437882224039
-1.15171893381
1.10676675395
-0.368247068001
0.0147950922677
-1.04297059943
0.242542946651
0.302444676275
-0.0676445459263
-0.181340642442
-0.723340055743
0.573305411056
-0.188286293671
-0.0352181885738
1.040397654
-1.28429314873
-0.936712208274
0.498913433323
0.884219022104
-0.178035880909
-0.476456687493
-0.0237649587572
0.0416974996672
-0.407166032495
-0.452173301171
0.385265553361
-0.473642019388
-0.120626406444
-0.844688245566
-0.558274178928
0.323222526395
0.748072508867
-0.244852916619
-0.199847895216
0.314266758074
-0.719146805943
-0.683337821315
0.101211245987
0.599501510847
-0.121983426202
0.565508488411
0.871307083657
-0.604141626063
-0.354615588763
0.629365827408
-1.05164933697
0.210846525118
0.0486905895776
-0.00209043883307
-0.321841869691
0.485379054762
0.341104392007
-0.239809700692
0.144171277703
0.777818736805
-0.570400208811
0.0329144658971
-0.486818471121
0.255534832181
-0.616605445764
-0.975905991909
-0.0940580984368
-0.0540750627468
0.327982856673
0.549234924862
0.873202412315
0.169296547207
1.16472264854
-0.985250595694
0.428156703216
-0.313205534279
-1.01906759092
-0.0999177472953
-0.628660450646
-0.228412916477
-0.138302003318
-0.141880574025
0.012557323541
-0.414172333088
-1.07495350865
0.558426957532
-1.01813494802
-0.020415695271
0.325743907731
-0.450597135784
-0.5406799343
-1.02433239827
-0.508562772264
0.626219803742
-1.08222251896
0.827860584834
0.945772037217
0.784055126552
0.340953809359
0.599616372413
0.218396148043
-0.406192764175
0.625832296656
-0.739208369349
0.475168436544
0.213138580433
0.36816990246
0.4746952849
0.49354455157
0.41398841929
-1.24984927576
-0.0646282013273
0.792443435816
-1.14673237574
-0.382191762115
0.39772865815
-0.633771949735
-0.0479285204925
0.0437180717064
-0.436462489328
0.150087185376
-0.920797916392
-0.763138178453
0.108525981262
0.203754578927
0.890200094087
-1.07063150087
-0.664201085635
-0.252957510583
1.08634751799
-0.73220061581
0.161380315384
0.35137553632
0.990440486024
0.0609878262402
0.226852578572
1.09881388978
-0.433790753569
-0.374839981859
-0.665123682247
0.48047044361
-0.488493524647
0.350378378492
-0.484577419577
-0.919219915469
0.469425311494
0.414758265641
0.210377796877
0.24744904714
0.644503857989
0.470170206288
-0.696328307791
0.962339195403
-0.624512345041
-0.652073069007
0.376536483962
0.978987971862
-0.67102947157
0.745152300819
-0.754292313744
-0.625181080681
-1.01308921919
-0.0258027904769
0.221836044098
0.297127360886
0.15219265159
0.559298020766
0.462017054148
0.527387498997
0.605598863679
0.00298608423558
-0.181851330276
-0.776297824293
-0.982251563763
-0.952920071163
0.783132409836
-0.259262756507
0.716643637045
-0.0891332998778
0.697823147041
-0.153144507913
-0.949579026507
-0.128816508468
0.721280933598
-0.526021267383
-1.03175279768
1.0703480199
-0.857674522822
-1.04888767581
-0.980700525739
-0.520511666959
-0.689266322819
-0.561506962803
-0.667258314708
0.285808873846
0.311181648426
0.337834941136
0.193092095095
-0.113506510665
-0.266469854368
-0.912022898937
-0.353907502211
0.676325938681
0.371077709666
0.528158311078
0.160224605315
0.724002525092
0.500289351223
0.0463961120986
-0.990120158362
-0.0530595022351
-0.869239448512
0.367373377715
-0.396472442825
-0.125000293746
-0.0750867760713
-0.103525511452
0.247457876261
0.607128529726
-0.224951072068
-1.03535175334
-0.264400048864
0.909982586484
-0.610238580605
0.209807354121
-0.713622286886
-0.396002807702
0.354458343998
-0.499916232132
0.466717592831
0.270402300951
0.67230295514
-0.177099562151
-0.352200319225
0.233606673169
0.0633676518335
0.500301152182
-1.053940577
0.677790659616
0.192798259715
0.285358953001
0.653571286327
0.919027085574
0.61827418744
0.261797396922
-0.652788229074
-0.232976264014
1.04233408741
0.176094175327
-0.588605921764
0.99002540546
-0.480936110397
-0.108532297703
0.980770222075
1.02879957712
0.306592556878
-0.0982469709933
0.828493978761
-0.168560560941
0.355087182774
-0.779520183936
-0.27912340963
0.717451565571
0.974497018417
0.572992040049
-0.435523351377
-0.317614988083
-0.514406449347
0.982006659855
0.16129804384
0.652789903054
-0.620195518848
-0.585653751722
0.71819398052
0.265061360877
-0.0632429603003
0.264977185901
0.749565711706
0.0850951762598
-0.0974723589319
-0.378975179863
-0.611877707251
1.18765969035
-0.530498196982
-0.48505655914
-0.406165242969
0.105964558119
-0.505473109705
-0.90255975601
0.465288557072
-0.906298951673
0.43555486452
0.768045839654
0.44815058368
-0.34428976411
0.158901082322
-0.702941318791
0.316914921342
-0.388723796131
0.379981642051
-0.225568387665
-0.759975010977
0.235514424304
0.120801359135
0.510132483137
-0.806404164524
0.0429298227631
-0.690384486736
-0.112511299446
0.60024489973
0.962534588338
-0.0191843589855
-1.24085281202
-0.886513503724
-0.0858884355998
0.182560405622
-0.468985150698
-0.233304565756
0.0386594763964
-0.164588925102
0.656127494603
-0.922778454548
0.222127840741
-0.782799400377
0.121269906946
0.06008933136
0.559548491964
-0.628420464287
-0.371350268784
0.384032834152
-0.0888000916515
-0.31876587729
-0.834292481702
0.00711176820257
0.51787638137
0.900659643878
-0.29913353423
-0.974282588552
-0.28278417303
0.484005937971
0.0212734722867
-0.66269642948
-0.433541528104
0.113790498521
-0.0112737462138
0.510537786682
-1.00321362443
0.329570912797
-0.674197725071
0.119544592111
0.72385165225
0.176415874998
0.924237297499
0.00352104453491
-0.522970871746
-0.360752188834
-1.13807421209
0.758110573626
0.492617761649
1.02509413103
0.810944186676
-0.600789489004
-0.913124888573
-0.198372344001
-0.740063196474
0.733057013809
-0.698850229853
-0.0167100329187
-0.63540591008
0.889010238466
-0.661935821872
-0.566815364793
-0.898884061543
-0.669337562862
-0.512995511432
-0.514372937065
-0.940262555732
0.896311441084
-0.800510976751
-0.24434594002
0.771226082395
-0.312874954502
-0.789632268157
-0.435782061543
0.0926141327904
-0.359342482481
-1.05881457935
-0.443960040326
0.318812858467
-0.697687419901
-0.209386506797
0.185284562761
0.917756268924
0.1929546366
-0.413432615591
0.236071144131
-0.512743053189
0.488476562867
0.895057735869
-0.363150109008
0.0184369660576
-1.00420437179
0.691485117083
0.138980410801
0.465624167999
0.21734751709
0.566009821448
-0.620819386313
-0.853174926812
-1.21759332439
0.511157187605
1.12461724273
-0.240923435953
-0.37082943451
0.981412171547
-0.863387071909
-0.0634571374815
0.920490973116
0.273193379904
0.824654369851
0.976209354218
0.593739410075
-0.796670370281
-0.301597011984
-0.0165603568169
0.704614493841
0.651701436832
-0.530334301196
0.752996826165
-0.547425456152
0.422830712324
0.26438437996
-0.883620333227
-0.420685394302
0.0854399487106
0.801245455998
-0.721579719119
-0.201682999688
-0.638740711132
0.679342339027
0.863819245545
0.27447602446
0.0265137402751
-0.74618339266
0.291990567927
0.273919710285
0.446280983985
1.14868464512
0.422151613496
1.06189310608
-0.69877576874
0.492596706628
0.446274624137
1.04516957334
0.777153719175
0.0645615492754
0.790910838973
-0.727086224809
0.47723694771
-0.572052825765
-0.883795272643
0.304242323156
0.0985209600566
-0.53491952756
-0.43283911046
-0.847257207209
-0.665460196625
1.34683759553
-0.297864361912
0.301413804136
-0.459955332023
-0.991151934617
-0.771771796077
0.429547227476
-0.53156434928
0.211617586561
-0.490642073128
0.668779590754
-0.463545005076
0.405157229858
1.02023949792
-0.594555467821
0.60692758597
-0.273981955395
-0.889117235912
-0.531877026715
0.323205410511
-0.830987533392
0.866201329078
-0.103245360781
-0.0986297136527
-0.81423226228
0.617891111564
-0.74434121999
0.736231652622
-0.659885468172
0.177137117399
0.897734838808
0.836751763917
0.757787281709
-0.864783140299
0.154432577619
-0.124630666133
-0.445275044846
1.02721474751
0.297615292261
0.686925589128
0.23799028024
0.88815562565
0.231164707939
-0.322735184901
-0.791018240376
-0.732090517091
-0.418021275396
-0.595308609606
-0.0189134291166
0.742467067737
0.288610201179
0.741989370024
0.890527090377
-0.991876414395
-0.0242551338296
-0.548728357068
0.104901746471
0.506041529537
0.50978248511
0.684788085918
0.578671429726
-0.482036003074
0.0375883186354
-0.391988136884
-0.973958400221
0.340101528296
0.763607576124
0.330283028451
-0.266737576327
-0.435007354523
0.784115704121
0.120903225593
0.92663891888
-0.135086318718
0.0953847265018
-0.787125714886
-0.926313516439
0.386499064053
-0.420703209036
-0.224179065935
-0.665947083605
0.489741530428
-0.409462107463
-0.763979852398
-0.509692468268
0.798675311038
-0.237434964055
0.311509695504
0.0290784905666
-0.138192252122
0.698862868228
-0.0548471198147
-0.495983915797
0.75150806335
-0.772643549007
-0.677932202917
-0.066280214379
-0.400332161041
-0.165951431032
-0.580409162196
0.018487447991
-0.612752590871
0.286933259381
0.980455274696
-1.0807679816
-1.12566793762
-0.543756463703
0.308964156889
0.223950015858
0.318328120868
0.236879699938
-0.912283897373
0.228709660095
0.568949803856
-1.05791345657
0.507699274926
0.319411019757
-0.223438390499
0.800065796162
0.432751986245
-0.821679986731
-0.402340535322
-0.418955046452
0.60802724433
-0.717429282619
-1.01859488625
0.642874861559
0.330980447013
0.851418007021
-0.878839011247
0.338367974661
0.926115167642
-1.15662013279
0.357415405709
0.0350216464652
0.52833189306
0.434597339481
0.441176739662
-0.121179444713
-0.767979953122
0.472623115033
-0.761402907202
-0.25427786005
-0.864492009816
0.308047489486
-0.647826568718
-0.604368727761
-0.737835310973
-0.0218264239204
-0.188023444859
-0.259857559102
0.92715215128
-0.517442195329
0.753228050352
-0.601529665962
-0.846685678171
0.450570747941
0.143872631061
0.726713782467
-0.0859194997961
-0.397554056281
-0.126473460399
1.04313504537
-0.233960912541
-0.102213356791
0.460849842478
0.660307544452
-0.381891028627
0.201793768123
-0.745165233191
-0.0309908675721
0.577338840884
0.812180181417
0.261203163139
0.0860609575
0.141726935604
-0.637079078954
0.669900482913
0.278225495205
1.11567058696
0.391677528845
0.789271758348
0.737043925337
0.0127109991649
0.564850603244
1.14643032515
1.0957317258
-0.823168578162
-0.180672680535
-0.861277153586
-0.180394578027
0.894341765146
0.65316702858
-0.00771508282154
-0.263338039783
-0.730206605852
0.328011644308
-0.0628509977507
0.567698894628
-0.0176107141736
0.48629523431
0.473380389244
-1.56839642746
0.627805686349
0.448132055072
0.712954492932
0.0299140126659
0.586174270964
-0.101033151116
0.611573633086
-0.0077915720203
1.0755301528
-0.518775165968
0.0111286480893
0.213385262378
0.261065005642
0.62984151768
-1.11500653884
0.882711902823
-0.0963593526209
-0.864410935725
-0.0541622764287
0.505624231345
-0.312104971326
0.296698009881
1.29064038862
-0.132728815582
-0.448221770713
0.999158606047
-0.396053185061
0.863080640947
-0.333481840339
-0.833086470054
-0.55801019183
-0.439792453314
-0.586373116825
0.67390772574
-0.197162587997
-0.934461108222
-0.252622136653
-0.659037964985
0.636173277643
-0.824684083847
-0.75366130847
0.0477385187734
0.46914755341
0.378464530751
0.849147431527
-0.977606295352
-0.277151718719
0.625389944476
0.750301112673
0.380457925876
-0.284049666389
0.358070493582
0.54242711981
-0.979123258233
0.441837955761
0.865790167807
-1.00627644362
-0.55187820208
-0.83276115996
0.94683397332
0.0492671416662
-0.16953869626
0.765387204972
-0.260674210351
-0.76385530755
-0.233688880131
0.162806323428
0.56285498443
0.910506382855
0.0601039439058
0.685056952883
0.892810228447
0.335524133779
0.803935421619
-0.0114007233438
0.324445388327
0.160868830605
0.326243510961
0.520638085736
-1.28177846321
-0.54124560204
-0.627037101047
0.174199245678
-1.04968133536
0.205836416218
-0.51110408509
0.56644967421
-0.326828086363
-0.410550375723
-0.903681883085
0.266272969609
-0.282261844773
0.841509377269
-0.196450655544
-0.250302546645
0.0430582011599
-0.766859157927
-0.100777903492
-1.1266423308
-0.354942334009
0.717189353717
-0.718633509199
0.346768740151
-0.223961519887
0.420003100689
0.336971500629
-0.555453792551
0.503579542108
0.132647145966
-0.867191405897
0.645809638308
-0.0268649023137
0.0347118265936
-0.497755814522
0.0873170708988
0.418020163708
1.04035111662
0.820137772452
-0.0635866788162
-0.78435141152
-0.411761742178
-0.0549415813878
-0.402469469498
0.949395850689
0.764533535468
1.17946039646
-0.882205078793
-0.644588152966
0.0120412854906
0.32042306947
0.50098106045
0.48721907181
-0.830121562099
-0.274426890878
0.494107432409
-0.451311233096
0.115090681972
0.791937690994
-0.152922576695
-0.848721783181
0.0316983247756
0.194696419136
-0.956806963377
0.213281371402
0.327295962927
0.307804299792
0.371749777166
0.0724142560211
0.919896824383
-0.564964063906
1.03224786809
-0.223041222939
-0.123230734862
0.218143342885
0.0905939675093
-0.292846347441
-0.740254090202
-0.528003179634
0.639326477987
-0.261764127662
-0.228203391765
-0.568013405059
-0.0796694929025
-0.930220104389
-0.0920763945353
-1.22526725651
-0.919713049311
0.216336829632
0.685566317825
-0.760944249291
0.369947752388
-0.0806040766171
0.512158452368
1.01465440933
0.88261148235
-0.654421029317
-0.140332508909
0.126872360927
0.420887263725
0.546816825725
0.107472913194
0.61360147118
0.699266458278
0.727735368613
-0.520165674294
0.033653117581
0.0906939458461
-0.222266951376
1.14441027561
-0.808346468816
-0.253127656117
-0.629095495471
1.22538265123
-0.214830734079
0.118013759723
-0.900360523344
0.527303870638
-1.06451523262
-0.87277013045
-0.560307681243
0.965077363205
-0.275892558276
-0.804969106099
0.586823881421
0.272073377764
-0.468957647336
0.857613480297
0.163011607019
0.181476250346
-0.705471541225
0.772261493169
0.0916880651732
-0.182601075086
0.546750630055
-0.137155793983
-0.617168083305
0.450433178806
0.27142486135
-0.966448161298
0.431320690232
0.754197683998
-0.27346548709
1.00354173271
0.556175661069
-0.383283108551
-0.110560022165
-0.156118753351
1.08398119153
0.157131807132
0.633078709342
-0.887270993462
0.535206147301
0.440439429135
-0.690228703553
-0.843162418358
-0.675243822507
-0.589957899039
-0.0477527107668
-0.136770390725
0.591698841005
0.285430480493
0.947739736927
0.530717878821
-0.7293698274
-0.952669877945
-0.84968804374
0.88962785936
-0.175410730498
-0.253012007475
-0.975269052819
0.280248643832
-0.948218013822
0.0718904862535
0.429210442903
0.775131413407
-0.556154064037
0.376115247751
0.417688734417
0.542498240951
0.33612174794
-0.543991021248
1.02939719856
0.793503566444
0.458427460618
0.596404802623
-0.816752029759
0.0303817930906
0.0218480041175
0.838672076787
0.304871779613
0.397282320736
0.250338457402
-0.456969908767
-1.13617880261
0.637657814632
-1.11164693696
0.544678290637
0.0459007921495
-0.520177399033
0.796088157883
0.263746415912
-0.531068779844
0.416155888395
0.460428017081
0.37042066985
0.216832158378
0.0216767286826
0.846551309557
1.03710533467
-0.218997389204
0.82346570136
0.837605935883
0.658873244031
0.434829289744
0.0405828095544
-0.883593132396
0.929635752966
0.781240445401
-0.245961231013
-0.949849870847
-0.19316587197
0.00984334688547
0.0868661068932
-0.18733310385
0.355798138019
-0.0435543350754
-0.321162786006
0.143970624098
0.181015987819
0.757819535337
0.307434134813
0.874869802677
0.715924774053
0.923005321805
0.505319175936
0.177793988052
-0.743663250308
-0.369878090531
0.369435584937
-0.339117825986
0.561195761676
-0.215949497442
0.210365722533
-0.0752661578827
-0.0854506437822
-0.674139943959
-0.801486646316
-0.382603567711
0.0962371505062
-0.089554626096
1.13640743614
-0.852579156364
0.762834709991
-0.639786761845
0.240759508451
0.354421489598
-0.760460106518
-0.00182352781381
-0.404753586253
-0.648422238418
-0.610081528627
0.416896346338
-0.0293896041699
-0.923955245071
0.0553693505653
0.196259182804
1.04674808348
0.695360090559
-0.189406803552
0.459488238448
0.715475984235
-0.363028315521
0.812550462401
0.0949428490695
-0.3167580183
-0.573821587922
-0.951273311123
0.0478284156799
-0.433984980162
-0.796599981325
0.504023020006
0.0896777056653
0.487781552062
0.0882842548265
0.92723608009
0.423397113192
-0.47969928504
-0.124467364202
-0.724796554194
0.798050992662
-0.876731543784
0.0659271950359
0.228723939009
-0.475395566658
0.156729900327
-0.0956959245029
-0.279375007623
-0.647444175373
-0.862723112151
0.534392605893
0.345641385176
-0.0693741646172
-0.499515001851
-0.716353487631
0.460215508807
0.0516173429146
-0.552704489255
0.164217899421
0.121798885664
-0.575284134857
-0.0376503477805
-0.88081809874
0.805513543564
-0.575970222538
-0.794998033229
0.286219385476
-0.672720318657
-0.165194960787
-1.22905829718
0.488021167097
0.338406973489
0.516332910326
0.243727835039
0.96826679138
-0.917387204751
0.6515745893
0.346643190284
0.405827105766
-0.588671414599
-0.305053793998
0.226101754601
-0.144523859269
-0.419644822815
-0.650629182085
0.541674739642
-0.87463371944
-0.523666248531
0.0214669346125
0.118205191005
0.0337177846638
-0.179060221462
-1.03311875252
-1.08636676493
-0.991505104278
-0.771431898051
-0.70417746615
0.0283705275767
-0.468376416458
0.826894992339
0.0434779312084
0.409759270639
-0.680918067831
0.0888440971802
-0.383789318302
0.0470807270197
0.738927652458
-0.896944801549
-0.866074930656
0.236775932457
-0.00763246006724
-0.0674037808585
-0.552808422899
0.784093590783
-0.537885758572
-0.175257815759
-0.370342951385
-0.673364144359
0.417145422344
0.61797019998
0.615200032825
-0.362623545545
0.268915162766
-0.124334087387
-0.422566036853
-0.574600429873
0.157634721364
-0.698837098004
0.219897607922
1.06196814956
-0.268626671955
0.843591345255
-0.90106475529
-0.210008799527
0.29139780376
-0.254084264307
0.555446247665
0.131068064901
-0.662607938087
-0.341917565838
0.636642935202
-0.555156463618
0.563643326843
-0.800629392708
0.184742043745
0.502440731636
-1.02852882341
-0.827299776811
-0.229978705703
0.643167010637
0.582742339822
-0.878846554
0.127804590515
0.219818176067
0.425128594428
-0.80409715357
0.878023007285
0.0664408016551
-0.929084750516
-0.0133086927073
0.575684951216
0.824709
0.743190852644
-0.725449219417
-0.622244691859
-0.828487205008
0.786634807949
0.298612115307
0.845014801082
-0.506472180582
0.359583376263
-0.430566742729
-0.33286434662
0.225510895438
0.545009069274
-0.599510258309
0.575505010116
-0.631955169079
-0.427290207517
-0.620723807288
0.386301086692
-0.478986916861
0.873687076656
1.02646687481
0.118232290407
0.326906644145
-1.02826393934
0.943144459316
0.751810528135
0.183483858483
-0.713444857003
-0.616280031178
0.598039183648
0.498670503154
-0.242835272339
-0.0546115452946
0.513616608716
-0.508937952544
-0.106272184633
-0.471152983968
-0.442251075225
0.795253502396
-0.507866749328
-0.838680801853
0.336539785458
-0.875830780475
0.351467262741
0.356099969311
0.928742476674
-0.320610353196
-0.583765575206
0.655224880494
1.0150850412
0.519529656688
-0.778853845145
-0.322786756785
-0.590007410243
0.740476923646
0.374600243332
-0.383389617441
-0.562941160665
0.394699255654
0.122184763732
0.980711925165
0.670261134374
0.542046528061
-0.0835091045316
-0.965615313612
0.771340534495
-1.07683990401
-0.350930865016
-0.0698222890813
-0.649540257186
-0.443755817829
-0.954647553763
-0.21934188351
-0.623923094429
0.999271037509
-0.138857840629
0.146274334878
-0.0190246425228
-0.0632098369047
-0.0248674857843
0.828335726958
-0.637781848307
0.961447207411
0.823343684416
-0.882467154549
1.12176988899
-0.381481032972
0.00156009721587
-0.911030771372
0.672252265921
0.714414747626
-0.871658709707
0.770304757618
0.685401093974
-0.499486877013
-0.0727224696717
0.71181683162
-0.227538341017
0.894336585175
0.507971407786
0.188964709285
-0.708705941738
1.02765980929
0.572586586926
-0.612780547401
0.390211776871
0.690404792774
0.595574042759
-0.0108065917397
-0.138197542782
-0.982279033206
0.55150600625
0.31942361646
0.381892668685
-0.69005505212
0.0987900305877
-0.190052745097
0.344500964946
-0.00790052988081
0.640767866259
0.198868767266
0.73509354025
-1.0448158681
0.151275304083
-0.690091775348
0.427178143362
-0.159160502183
-0.184823938271
-0.409137493317
-0.950377029799
0.683016869489
-0.609776841797
-0.0506073842457
0.0842882300744
0.772871094886
0.00244140743726
0.00730568041678
0.426609081552
0.23579687
0.741059803315
0.0679927232346
1.20544860574
0.687794318944
0.448341103552
0.843991407623
0.519483282457
0.773805515996
0.301215204813
0.327713141674
0.244207106169
-0.646282501845
-0.449878339366
-0.422952798677
0.7951074288
-0.896826652815
-0.511330240129
0.319349550143
0.762968939737
1.06780060343
0.924632975659
-0.553809693798
-0.631872678124
0.0507379763754
-0.307125948685
-0.837807017144
0.776300631907
-0.522005412938
0.88892618264
-0.61926740822
-0.266069972982
1.04380380909
0.356851196535
-0.166286874674
0.580434416079
-0.49392692758
-1.00941983025
0.353502589274
-0.57646803807
-0.240974317329
-0.528969173653
0.281325559975
0.115102817663
-0.421980828833
-0.402481019512
-0.700541077339
0.913474806801
0.267629332758
0.25996539353
-1.00743612113
0.0982291773256
0.61592493918
-0.288935413243
0.264814827361
-0.175196413185
-0.0965014887536
-0.790271877782
0.969867393591
0.635448203915
0.500683852339
-0.170337311015
0.666433219996
0.463405757803
0.72943416809
-0.441965952735
-0.913159399382
-0.135753534987
0.174004252591
-0.805064453357
-0.839409065497
0.0185126610076
-0.607866286401
-1.07704148947
0.102197238458
0.937522076034
0.750951225134
0.238395898236
-0.733110949119
-0.319871910093
0.33506958558
-0.65766085759
-0.149486168491
-0.0306646639842
0.473086719998
-0.849092496644
-0.00781958707786
-0.125285995361
0.563902789675
-0.324271678999
-0.000753784770555
1.03651769502
0.31463427601
-0.797129800137
-0.531586724622
-0.030110502677
-0.277462509985
-0.461555253926
0.95318917549
0.626795187157
-0.157489067189
-0.444492678064
-0.510826931952
0.753471679556
0.164250966217
-0.863800478005
-0.704602230363
0.867129262442
-0.717104531467
-0.275198795476
0.104715662074
-0.966927306112
0.772326956982
-0.176168760625
0.487254604528
0.63515023358
0.889131259531
-0.817545366576
0.608357897285
1.00478973737
-0.561367749486
-0.559612032134
-0.3823282906
0.37565544354
0.949132645124
0.0529617385456
-1.0669786185
-0.384458085728
0.843205647104
-0.623972641804
0.690829621444
-0.940453170243
-0.324376446804
0.0645409663707
-0.520155562059
-0.668058063201
-0.713279758684
-0.39934502218
0.71821380318
0.757925581265
-0.407219268117
0.463290688905
-0.594353285044
0.30625070496
0.921717202756
0.204161948959
0.527186145456
0.106285425792
0.465286459786
0.176910484671
0.125674564443
0.0492142029792
0.0742983049595
-0.850093813132
-0.252847001036
-0.0519381419791
0.201376154084
-0.500449975148
-0.948757257664
0.837523152109
0.501800755753
0.676091305012
-0.478539992593
0.607385881772
-0.17188107257
-0.655224906906
0.646281322256
-0.362734870999
0.581301483088
0.136687226038
0.837257128947
-0.465852324723
-0.663016264773
1.04546420131
-0.907410827595
0.21837685523
-0.0494227062258
-0.0480109529362
0.791556945647
-0.135542135173
-1.05181284541
0.632119839315
-0.308867626964
0.00462009319876
-0.64878019993
-0.193889111937
-0.408450823131
-0.0923458949243
0.26800055936
0.120247198617
-0.41883507162
0.352522059899
-0.382938537712
0.369912555457
-0.344140726266
0.271424793046
0.646316348622
-0.26183514837
-0.711630692543
0.365815329123
0.524727590604
0.813571198695
0.270364184059
-0.466269494247
-0.535383483016
-0.415996986338
0.0684166813339
-0.260742073201
-0.266218771352
-0.144374782823
0.179891837721
-0.120427965754
-0.622591606909
-0.434649632422
-0.274954511109
0.160530231776
-0.767855789963
0.532473415204
0.196567836315
1.06665866123
-1.17155954853
0.277003629466
0.142451283985
-0.370372299303
-0.737346165084
-0.935002663712
0.862234464151
0.397672767934
1.0851497755
-0.121416400562
-0.189887212296
-0.306053962343
-0.692412481761
0.384602497812
-0.65409316239
-0.971969277441
-0.431642595002
-0.312181451729
0.604973875366
-0.349743703078
0.656433092993
-0.203675666756
-0.628734048931
-0.117350469935
-0.565509397222
0.349866592463
0.437411762749
-0.948446964533
-0.113878412863
0.140763000234
0.334465142149
-0.592122197051
0.951098357329
-0.884059817124
-0.486370322667
-0.92870348886
-0.543340337596
-0.0964583296393
-0.0920453533337
-0.460792069708
0.199674630641
0.275202072891
-0.272238432218
-0.107089900515
-1.0066938233
1.08382655125
-0.22603791624
-0.538078009557
-0.346314041611
0.927095097483
0.352844302281
-0.480464227322
0.547996727044
0.0223882140717
-0.717174745641
0.290329413666
-0.787427555356
0.749135655475
-0.00525131516682
-0.895852909454
1.00202152222
-0.672179298026
0.889335021082
0.507573494786
0.184976734927
0.18566788437
-0.535076339951
-0.569150782401
-0.283123390518
-0.540135346313
-0.431387581288
0.713288050386
0.414931249629
-0.941396705188
0.215295649488
0.52905169452
0.444598642595
0.265999777808
0.789005978382
0.488255501575
-0.657878779088
0.879270887478
0.0652283873274
-0.627567687811
0.202595618026
-0.351073354493
0.641042545912
-1.14534094549
-0.999576451894
0.697054609196
0.238451144755
0.237976744182
-0.0157258837744
0.537587824826
0.708207964536
0.704451007101
-0.866783154527
0.727468625277
0.720590655318
-0.676587315182
-0.932432887085
0.214658208935
-1.17718132811
0.314389665509
0.894188965653
0.625535358037
0.925601773509
-0.213779954333
-0.698278373536
-0.360304238345
0.128462289249
0.177674262182
-0.908844240953
0.687642116824
-0.952521510102
0.0801866728922
0.881734330969
-0.0637427890754
-0.5736761413
-0.319205354944
0.751959866863
-0.221163547574
0.334781706396
-0.426486906713
-0.280847855157
0.772716244568
-0.58493634696
-0.386520918079
0.0135561272437
-0.242717664894
0.87162654305
-0.407697875779
0.609688002949
-0.499355579052
0.403091155405
0.986143386577
-0.287417814454
-0.180876943982
-0.991877073686
0.106837123337
0.247039526021
0.627194595158
0.943079336076
0.988483677294
0.450540090684
-0.195434965017
-0.637008507674
-0.630058102855
-0.366456009805
0.954901009435
-0.527116595775
0.803773570866
0.960314638569
-0.198193695877
0.689475771775
-0.43850601527
0.0435862724888
1.02662418178
-0.338183646403
0.491391035929
0.172820020155
0.153704107431
0.286135530481
0.373137122725
-0.00444358565134
0.786960255693
0.539706597618
0.189695407887
1.00176401012
0.7978683248
0.620060998394
-0.634657879496
-0.764227535764
-0.917524124942
-0.116747107488
-0.65634956151
0.785731433852
0.848281111009
-0.237792051913
0.138894772497
0.346729936368
-0.669820497114
-0.0312850659096
0.649610809603
-0.759633964327
-0.776143186276
-0.914443064301
-0.239086834553
-0.69568105203
0.8278716252
0.654581604468
-0.621277213954
0.150098515818
0.971639044052
0.970662273961
0.352480534337
0.536027914744
-0.778379547287
-0.241292756868
0.0133247806932
0.311324029742
-0.122423559327
0.305534687293
-0.536900248194
0.0203891278722
-0.0551255472806
-0.900843833074
0.565794676687
-0.0882740641851
-0.854105435849
-0.976831191005
-0.182544127552
0.654257389036
0.0372241968638
-0.521686431846
-0.589875216538
0.663627789708
0.534702021482
0.685281027254
-0.668551447108
-0.30056731233
0.822227353631
-0.55655453378
-0.088988453872
0.842010840103
-0.668352606404
-0.0206672362786
0.36831389113
0.472472984946
-0.924748454588
-0.174804296691
0.739383755708
0.317202655884
-0.689043867972
0.643476479621
0.128737008958
0.583400862605
-0.0316088058364
0.697592822184
-0.802028463535
-0.279728714108
0.41247913769
-0.112240515192
0.0308545282897
0.130993820513
0.438697042152
0.00306724444122
-0.489355630998
0.641128640439
0.574890743552
-0.395976001159
0.834205273908
0.478318201599
-0.602250978596
0.0648415851398
0.725841589565
0.714732170953
-0.815848994388
0.667167411063
-0.857121793793
0.966792112524
-0.573462458499
-0.905721893532
0.10012162754
0.0176374573176
-0.667763161978
0.20360325825
-0.505773888657
-0.206302827995
-0.638053735679
-0.390059425164
-0.921297625365
0.90278820809
0.200679699863
0.832081375236
0.866288252035
0.400746827224
0.586345869931
0.614921575721
-0.24542984901
-0.121829605285
-0.461469701621
0.338527867499
0.503015833999
0.394427313058
0.686294018612
-0.287039022125
0.451311803311
-0.216590413307
0.654225345767
-0.692271868366
-0.463088167259
0.153488684273
0.000382000854622
0.470039118652
0.645430219721
-0.742000132555
-0.900266335439
-0.480634769064
-1.15847882178
0.427750813317
0.861702505047
0.938093627539
0.215582712093
-0.169766332909
-0.435866235309
0.827486853433
-0.396033285787
0.813374042033
-0.735494669565
0.81439104628
-0.0735629247719
-0.95094518307
0.0963587882606
-0.644914035171
-0.274718011964
-0.663085360686
-0.702647072155
-0.116813909322
-0.0798925665929
0.25237922296
-0.596299913372
0.704312986832
-0.151069742433
-0.33138871667
0.614007956564
-0.735672307132
0.525261774384
-0.0795060477916
-0.738424427624
0.549801394634
0.626013054174
-0.721910826465
1.0211228052
0.404861195398
0.501781442149
0.71100327905
0.818667240637
0.439571446616
0.0892237287148
-0.880522604884
-0.877873006552
-0.945170311516
-0.307991044636
-0.812869590901
0.888462867738
-0.243187076331
-0.426316974413
0.74979186637
-0.022816643487
0.220769491598
-1.0371571922
-0.9852620243
0.0100654168509
0.260050133303
-0.748155031825
-0.671499155857
-0.205782801898
0.0736932566812
0.313064176968
-0.704775096951
0.729742838014
-0.614082300819
-0.330409276401
0.922076561247
-0.849683571233
0.207079207564
0.135031253004
0.941141407872
0.505613554618
-0.608594818019
-0.45486426916
-0.316671143374
-0.332022107243
0.214374829987
0.81526773167
-0.68299992315
-0.673735305
-0.0723069047152
-0.0826426754265
0.440590725327
-0.802775550807
0.692669250215
-0.725163319594
0.207333982858
0.625227436798
0.182909630218
0.165290032642
0.360711711666
